{"learner":{"attributes":{},"feature_names":["zip_code_prefix","shipping_limit_date","geolocation_lat"],"feature_types":["int","int","float"],"gradient_booster":{"model":{"gbtree_model_param":{"num_parallel_tree":"1","num_trees":"100"},"iteration_indptr":[0,1,2,3,4,5,6,7,8,9,10,11,12,13,14,15,16,17,18,19,20,21,22,23,24,25,26,27,28,29,30,31,32,33,34,35,36,37,38,39,40,41,42,43,44,45,46,47,48,49,50,51,52,53,54,55,56,57,58,59,60,61,62,63,64,65,66,67,68,69,70,71,72,73,74,75,76,77,78,79,80,81,82,83,84,85,86,87,88,89,90,91,92,93,94,95,96,97,98,99,100],"tree_info":[0,0,0,0,0,0,0,0,0,0,0,0,0,0,0,0,0,0,0,0,0,0,0,0,0,0,0,0,0,0,0,0,0,0,0,0,0,0,0,0,0,0,0,0,0,0,0,0,0,0,0,0,0,0,0,0,0,0,0,0,0,0,0,0,0,0,0,0,0,0,0,0,0,0,0,0,0,0,0,0,0,0,0,0,0,0,0,0,0,0,0,0,0,0,0,0,0,0,0,0],"trees":[{"base_weights":[-7.502785E-8,-8.035658E1,1.20380745E1,-9.808184E1,-5.992814E1,7.902206E1,-7.402446E-1,-9.981884E1,6.9858503E0,1.4330913E1,-6.4144806E1,2.4970755E1,6.0515972E1,-4.4467434E1,3.499417E1,-1.1542184E2,-8.691034E1,6.846399E1,-3.7812054E1,-8.658867E1,-4.7878407E1,-9.0738464E1,7.969384E1,-1.948688E1,-8.133847E1,5.6737225E1,4.8257146E0,-2.9123947E1,-1.2195044E2,-1.07085526E2,-1.3226301E1,7.335737E1,-2.9425347E0,-2.8236805E1,-2.2338259E1,-9.526752E1,-5.3347633E1,2.2373434E1,-7.529411E1,-7.318208E0,-3.614311E1,7.1975427E0,2.5024616E1,2.3026608E1,-3.872559E1,-6.866267E1,-3.7537685E1,6.2053143E1,-4.8944584E1,5.2781986E1,-1.5426064E1,1.1533652E1,-1.5395118E1,-5.6018043E0,-3.685556E1,-2.7235598E1,-3.6770657E1,7.487227E0,-2.1046148E1,2.3450867E1,1.1091698E1,1.675062E1,-1.0945132E1,-2.92633E1,6.096742E0,-2.5566881E1,7.1975427E0,3.530889E0,7.5312696E0,1.1403592E0,-2.5176188E1,1.2562965E1,-5.231173E0,2.3081722E1,5.8340087E0,-2.5247961E1,-5.6634674E0,-2.444234E1,8.196209E0,1.2609967E1,2.263405E1,-2.4703932E1,2.1986612E1,-1.1027215E1,1.9495214E1,-2.6755602E1,-2.8553123E0],"categories":[],"categories_nodes":[],"categories_segments":[],"categories_sizes":[],"default_left":[0,0,0,0,0,0,1,0,0,0,0,0,0,0,0,0,0,0,0,0,0,0,0,0,0,0,0,0,0,0,0,0,0,0,0,0,0,0,0,0,0,0,0,0,0,0,0,0,0,0,0,0,0,0,0,0,0,0,0,0,0,0,0,0,0,0,0,0,0,0,0,0,0,0,0,0,0,0,0,0,0,0,0,0,0,0,0],"id":0,"left_children":[1,3,5,7,9,11,13,15,-1,17,19,-1,21,23,25,27,29,31,33,35,37,39,41,43,45,47,49,51,53,55,57,59,-1,-1,61,63,65,67,69,71,-1,-1,-1,73,75,77,-1,79,81,83,85,-1,-1,-1,-1,-1,-1,-1,-1,-1,-1,-1,-1,-1,-1,-1,-1,-1,-1,-1,-1,-1,-1,-1,-1,-1,-1,-1,-1,-1,-1,-1,-1,-1,-1,-1,-1],"loss_changes":[1.1017985E7,5.31479E5,8.479027E6,1.695015E5,2.1760225E5,1.18719E5,1.3002101E7,1.47472E5,0E0,1.0984981E5,2.3498225E5,0E0,8.716509E5,3.445017E6,3.0033415E6,1.942035E5,6.407905E5,7.9968516E3,1.5324242E4,7.3965125E4,7.3741806E5,8.346547E4,5.2932625E4,1.8264552E6,8.3007E5,1.497975E6,1.8645465E6,4.09619E4,2.8056E4,7.442975E4,2.0607914E5,2.6154688E2,0E0,0E0,2.08358E4,5.882825E4,1.4749252E5,2.831871E3,1.8795612E5,5.708246E3,0E0,0E0,0E0,1.3283312E5,1.3844022E6,1.4459165E6,0E0,6.76297E5,5.286359E5,6.251506E5,5.874758E5,0E0,0E0,0E0,0E0,0E0,0E0,0E0,0E0,0E0,0E0,0E0,0E0,0E0,0E0,0E0,0E0,0E0,0E0,0E0,0E0,0E0,0E0,0E0,0E0,0E0,0E0,0E0,0E0,0E0,0E0,0E0,0E0,0E0,0E0,0E0,0E0],"parents":[2147483647,0,0,1,1,2,2,3,3,4,4,5,5,6,6,7,7,9,9,10,10,12,12,13,13,14,14,15,15,16,16,17,17,18,18,19,19,20,20,21,21,22,22,23,23,24,24,25,25,26,26,27,27,28,28,29,29,30,30,31,31,34,34,35,35,36,36,37,37,38,38,39,39,43,43,44,44,45,45,47,47,48,48,49,49,50,50],"right_children":[2,4,6,8,10,12,14,16,-1,18,20,-1,22,24,26,28,30,32,34,36,38,40,42,44,46,48,50,52,54,56,58,60,-1,-1,62,64,66,68,70,72,-1,-1,-1,74,76,78,-1,80,82,84,86,-1,-1,-1,-1,-1,-1,-1,-1,-1,-1,-1,-1,-1,-1,-1,-1,-1,-1,-1,-1,-1,-1,-1,-1,-1,-1,-1,-1,-1,-1,-1,-1,-1,-1,-1,-1],"split_conditions":[5.849E3,1.5156634E9,6.44E3,-2.3460165E1,1.529E3,-2.3646847E1,-2.2929913E1,3.47E3,6.9858503E0,-2.3549276E1,3.613E3,2.4970755E1,6.341E3,-2.3537922E1,1.494E4,1.529E3,-2.3502716E1,1.5353294E9,-2.354479E1,1.5312475E9,3.809E3,1.5119146E9,6.429E3,9.02E3,-2.2931255E1,-2.1168375E1,-2.274139E1,1.5075677E9,-2.3552513E1,5.125E3,3.809E3,-2.3552513E1,-2.9425347E0,-2.8236805E1,-2.3539495E1,-2.3460165E1,-2.3484964E1,-2.3523996E1,-2.3652802E1,1.5041043E9,-3.614311E1,7.1975427E0,2.5024616E1,6.763E3,1.19E4,-2.3011335E1,-3.7537685E1,-2.136757E1,-2.0502342E1,2.184E4,1.75E4,1.1533652E1,-1.5395118E1,-5.6018043E0,-3.685556E1,-2.7235598E1,-3.6770657E1,7.487227E0,-2.1046148E1,2.3450867E1,1.1091698E1,1.675062E1,-1.0945132E1,-2.92633E1,6.096742E0,-2.5566881E1,7.1975427E0,3.530889E0,7.5312696E0,1.1403592E0,-2.5176188E1,1.2562965E1,-5.231173E0,2.3081722E1,5.8340087E0,-2.5247961E1,-5.6634674E0,-2.444234E1,8.196209E0,1.2609967E1,2.263405E1,-2.4703932E1,2.1986612E1,-1.1027215E1,1.9495214E1,-2.6755602E1,-2.8553123E0],"split_indices":[0,1,0,2,0,2,2,0,0,2,0,0,0,2,0,0,2,1,2,1,0,1,0,0,2,2,2,1,2,0,0,2,0,0,2,2,2,2,2,1,0,0,0,0,0,2,0,2,2,0,0,0,0,0,0,0,0,0,0,0,0,0,0,0,0,0,0,0,0,0,0,0,0,0,0,0,0,0,0,0,0,0,0,0,0,0,0],"split_type":[0,0,0,0,0,0,0,0,0,0,0,0,0,0,0,0,0,0,0,0,0,0,0,0,0,0,0,0,0,0,0,0,0,0,0,0,0,0,0,0,0,0,0,0,0,0,0,0,0,0,0,0,0,0,0,0,0,0,0,0,0,0,0,0,0,0,0,0,0,0,0,0,0,0,0,0,0,0,0,0,0,0,0,0,0,0,0],"sum_hessian":[1.1388E4,1.483E3,9.905E3,7.92E2,6.91E2,1.586E3,8.319E3,7.81E2,1.1E1,3.7E1,6.54E2,1.289E3,2.97E2,3.741E3,4.578E3,3.5E2,4.31E2,1.8E1,1.9E1,2.73E2,3.81E2,3.3E1,2.64E2,2.231E3,1.51E3,2.66E3,1.918E3,2.5E1,3.25E2,3.38E2,9.3E1,1.7E1,1E0,3E0,1.6E1,2.15E2,5.8E1,1.07E2,2.74E2,9E0,2.4E1,1.7E1,2.47E2,6.95E2,1.536E3,1.173E3,3.37E2,2.533E3,1.27E2,5.69E2,1.349E3,6E0,1.9E1,3E0,3.22E2,1.68E2,1.7E2,5.6E1,3.7E1,1.4E1,3E0,2E0,1.4E1,2.11E2,4E0,4.1E1,1.7E1,2.3E1,8.4E1,2.7E1,2.47E2,1E0,8E0,4.2E1,6.53E2,4.66E2,1.07E3,1.035E3,1.38E2,1.017E3,1.516E3,1E2,2.7E1,6.8E1,5.01E2,9.9E1,1.25E3],"tree_param":{"num_deleted":"0","num_feature":"3","num_nodes":"87","size_leaf_vector":"1"}},{"base_weights":[-1.5650414E-2,-5.635893E1,8.425036E0,-6.8804695E1,-4.2015213E1,2.4658916E1,-1.870519E1,-7.003161E1,5.06474E0,1.027292E1,-4.4984577E1,-7.826139E1,2.987053E1,-4.275356E1,4.9163923E0,-8.092725E1,-6.1016785E1,4.958795E1,-2.7590008E1,-6.314042E1,-3.453942E1,6.274331E1,-1.0682757E2,5.533333E1,2.0496553E1,-8.8025E1,-1.7314526E1,4.5527195E1,-1.0820174E1,-2.0535284E1,-8.5495544E1,-7.5148674E1,-9.4026575E0,1.5980758E1,-2.5011544E0,-2.1883524E1,-1.5295284E1,-7.602587E1,-4.1490013E1,5.602362E-1,-5.2793278E1,-2.9984004E0,8.089724E1,-5.7350487E1,-1.18662704E2,1.7485336E1,4.237263E1,-7.4510055E0,4.262093E1,-8.9330826E1,-5.1231693E1,3.0604634E0,-7.695553E1,5.5630775E1,2.3268322E1,2.0004282E0,-4.608239E1,-2.6424433E1,-1.2751397E0,-4.341398E0,-2.5833124E1,-6.736306E0,-2.3255676E1,5.280465E0,-1.4898459E1,-6.183258E-1,-2.2910357E1,-8.792444E0,-2.4680712E1,-2.3074223E1,4.4299726E0,-1.3149894E1,4.729151E0,8.1046766E-1,-1.7653786E1,1.4479864E0,-3.4883575E0,1.266988E0,2.6099972E1,-2.4841932E1,1.5826184E1,7.597657E0,-3.585406E1,-1.9309294E1,1.6772186E1,7.8866234E0,-7.749326E0,1.498104E1,-4.3619037E0,-2.8397726E1,-2.5235712E1,-2.362161E0,-2.542084E1,-6.3542814E0,2.1588127E1,-2.7371391E1,1.0136942E1,5.004929E-1,1.8660673E1,1.4713438E0,1.7972052E1,-3.1385866E1,2.1194205E0,-2.4480783E1,3.699249E0],"categories":[],"categories_nodes":[],"categories_segments":[],"categories_sizes":[],"default_left":[0,0,0,0,0,0,1,0,0,0,0,0,0,0,0,0,0,0,0,0,0,0,0,0,0,0,0,0,0,0,0,0,0,0,0,0,0,0,0,0,0,0,0,0,0,0,0,0,0,0,0,0,0,0,0,0,0,0,0,0,0,0,0,0,0,0,0,0,0,0,0,0,0,0,0,0,0,0,0,0,0,0,0,0,0,0,0,0,0,0,0,0,0,0,0,0,0,0,0,0,0,0,0,0,0],"id":1,"left_children":[1,3,5,7,9,11,13,15,-1,17,19,21,23,25,27,29,31,33,35,37,39,41,43,45,47,49,51,53,55,57,59,61,63,-1,-1,-1,65,67,69,71,73,75,77,79,81,-1,83,85,87,89,91,93,95,97,99,101,103,-1,-1,-1,-1,-1,-1,-1,-1,-1,-1,-1,-1,-1,-1,-1,-1,-1,-1,-1,-1,-1,-1,-1,-1,-1,-1,-1,-1,-1,-1,-1,-1,-1,-1,-1,-1,-1,-1,-1,-1,-1,-1,-1,-1,-1,-1,-1,-1],"loss_changes":[5.4168095E6,2.620305E5,4.3633495E6,8.455075E4,1.0790375E5,3.326826E6,2.1071465E6,7.1872E4,0E0,5.7934258E4,1.2203375E5,1.2110642E6,1.407123E6,2.11523E6,1.1968401E6,9.508125E4,3.1439638E5,4.4956016E3,1.0036842E4,6.3241812E4,2.6784388E5,6.1109562E4,1.39001E5,5.82305E4,2.6677598E6,2.7182E4,1.4317231E6,1.163255E5,6.1040406E5,2.8225012E4,1.299025E4,4.0599875E4,1.0306706E5,0E0,0E0,0E0,1.3582788E4,4.0755438E4,1.8248388E5,9.788185E4,9.252931E4,8.6643164E2,1.8349156E4,1.4450898E5,2.75285E4,0E0,4.341035E5,1.1832846E6,1.007703E6,9.7265E3,3.5649797E4,1.4696576E6,4.7759712E5,1.27202E5,1.1072213E5,5.358358E5,7.479523E5,0E0,0E0,0E0,0E0,0E0,0E0,0E0,0E0,0E0,0E0,0E0,0E0,0E0,0E0,0E0,0E0,0E0,0E0,0E0,0E0,0E0,0E0,0E0,0E0,0E0,0E0,0E0,0E0,0E0,0E0,0E0,0E0,0E0,0E0,0E0,0E0,0E0,0E0,0E0,0E0,0E0,0E0,0E0,0E0,0E0,0E0,0E0,0E0],"parents":[2147483647,0,0,1,1,2,2,3,3,4,4,5,5,6,6,7,7,9,9,10,10,11,11,12,12,13,13,14,14,15,15,16,16,17,17,18,18,19,19,20,20,21,21,22,22,23,23,24,24,25,25,26,26,27,27,28,28,29,29,30,30,31,31,32,32,36,36,37,37,38,38,39,39,40,40,41,41,42,42,43,43,44,44,46,46,47,47,48,48,49,49,50,50,51,51,52,52,53,53,54,54,55,55,56,56],"right_children":[2,4,6,8,10,12,14,16,-1,18,20,22,24,26,28,30,32,34,36,38,40,42,44,46,48,50,52,54,56,58,60,62,64,-1,-1,-1,66,68,70,72,74,76,78,80,82,-1,84,86,88,90,92,94,96,98,100,102,104,-1,-1,-1,-1,-1,-1,-1,-1,-1,-1,-1,-1,-1,-1,-1,-1,-1,-1,-1,-1,-1,-1,-1,-1,-1,-1,-1,-1,-1,-1,-1,-1,-1,-1,-1,-1,-1,-1,-1,-1,-1,-1,-1,-1,-1,-1,-1,-1],"split_conditions":[5.849E3,1.5156634E9,1.494E4,-2.3460165E1,1.529E3,-2.3680084E1,-2.2874598E1,3.47E3,5.06474E0,-2.3549276E1,3.543E3,-2.4011288E1,6.44E3,2.279E4,-2.274139E1,1.529E3,-2.3502716E1,1.5353294E9,-2.354479E1,1.5265581E9,3.809E3,1.5166674E9,1.145E4,-2.3646847E1,-2.2900814E1,-2.2911196E1,8.9204E4,2.4451E4,3.758E4,-2.354479E1,-2.3552513E1,-2.3680084E1,3.809E3,1.5980758E1,-2.5011544E0,-2.1883524E1,1.5252177E9,-2.3552513E1,-2.3492031E1,3.613E3,-2.3652802E1,1.19E4,1.19E4,1.5192868E9,1.4930739E9,1.7485336E1,6.341E3,-2.3656677E1,-2.1168505E1,2.121E4,1.5160735E9,8.837E4,1.5305481E9,2.184E4,2.6379E4,-2.2599255E1,5.828E4,-2.6424433E1,-1.2751397E0,-4.341398E0,-2.5833124E1,-6.736306E0,-2.3255676E1,5.280465E0,-1.4898459E1,-6.183258E-1,-2.2910357E1,-8.792444E0,-2.4680712E1,-2.3074223E1,4.4299726E0,-1.3149894E1,4.729151E0,8.1046766E-1,-1.7653786E1,1.4479864E0,-3.4883575E0,1.266988E0,2.6099972E1,-2.4841932E1,1.5826184E1,7.597657E0,-3.585406E1,-1.9309294E1,1.6772186E1,7.8866234E0,-7.749326E0,1.498104E1,-4.3619037E0,-2.8397726E1,-2.5235712E1,-2.362161E0,-2.542084E1,-6.3542814E0,2.1588127E1,-2.7371391E1,1.0136942E1,5.004929E-1,1.8660673E1,1.4713438E0,1.7972052E1,-3.1385866E1,2.1194205E0,-2.4480783E1,3.699249E0],"split_indices":[0,1,0,2,0,2,2,0,0,2,0,2,0,0,2,0,2,1,2,1,0,1,0,2,2,2,0,0,0,2,2,2,0,0,0,0,1,2,2,0,2,0,0,1,1,0,0,2,2,0,1,0,1,0,0,2,0,0,0,0,0,0,0,0,0,0,0,0,0,0,0,0,0,0,0,0,0,0,0,0,0,0,0,0,0,0,0,0,0,0,0,0,0,0,0,0,0,0,0,0,0,0,0,0,0],"split_type":[0,0,0,0,0,0,0,0,0,0,0,0,0,0,0,0,0,0,0,0,0,0,0,0,0,0,0,0,0,0,0,0,0,0,0,0,0,0,0,0,0,0,0,0,0,0,0,0,0,0,0,0,0,0,0,0,0,0,0,0,0,0,0,0,0,0,0,0,0,0,0,0,0,0,0,0,0,0,0,0,0,0,0,0,0,0,0,0,0,0,0,0,0,0,0,0,0,0,0,0,0,0,0,0,0],"sum_hessian":[1.1388E4,1.483E3,9.905E3,7.92E2,6.91E2,6.197E3,3.708E3,7.81E2,1.1E1,3.7E1,6.54E2,2.98E2,5.899E3,1.837E3,1.871E3,3.5E2,4.31E2,1.8E1,1.9E1,2.37E2,4.17E2,5E1,2.48E2,1.586E3,4.313E3,6.6E2,1.177E3,5.22E2,1.349E3,2.5E1,3.25E2,3.38E2,9.3E1,1.7E1,1E0,3E0,1.6E1,1.47E2,9E1,1.43E2,2.74E2,1.1E1,3.9E1,4.9E1,1.99E2,1.289E3,2.97E2,1.906E3,2.407E3,6.36E2,2.4E1,8.78E2,2.99E2,3.58E2,1.64E2,9.9E2,3.59E2,4E0,2.1E1,3E0,3.22E2,1.5E1,3.23E2,5.6E1,3.7E1,1.4E1,2E0,1.8E1,1.29E2,5.5E1,3.5E1,3.6E1,1.07E2,2.7E1,2.47E2,6E0,5E0,3E0,3.6E1,4E1,9E0,1E0,1.98E2,3.3E1,2.64E2,6.72E2,1.234E3,2.134E3,2.73E2,3.06E2,3.3E2,1.1E1,1.3E1,6.5E2,2.28E2,2.65E2,3.4E1,3.9E1,3.19E2,1.1E2,5.4E1,4.4E1,9.46E2,2.23E2,1.36E2],"tree_param":{"num_deleted":"0","num_feature":"3","num_nodes":"105","size_leaf_vector":"1"}},{"base_weights":[-3.5787396E-2,-3.9587193E1,5.889341E0,-4.2815815E1,-9.930817E0,1.7263464E1,-1.3119207E1,-4.9032383E1,-3.2061188E1,3.1424728E1,-1.9497686E1,-5.482292E1,2.0913729E1,-5.4638927E1,-6.17989E0,-1.6878983E1,-5.081768E1,-1.4604349E0,-5.6715786E1,-1.6960129E1,8.855804E1,-6.0512414E0,-6.346275E1,4.4416912E1,-7.492898E1,3.874275E1,1.4350083E1,-6.537663E1,-3.3514214E1,-8.3648254E1,-2.5034657E0,2.965251E1,-2.4600018E1,-5.5235653E1,-3.9810623E1,-1.9558765E1,3.4969804E0,-6.109727E1,8.749546E0,1.2906597E1,-2.066673E1,3.938797E1,3.1810488E1,3.423993E1,-1.5514265E1,-4.8112845E0,-6.778935E1,-2.2689095E0,5.7312237E1,-4.0325653E1,-8.320517E1,1.2243802E1,2.9652327E1,-1.06346655E1,2.8720882E1,-5.112896E1,-7.024017E1,5.936756E0,-7.346949E1,-2.4207306E1,-8.7903496E1,3.653378E1,-6.311761E0,1.469892E1,3.6347024E0,-1.6805286E1,-4.498521E0,-1.5137139E1,-1.9328537E1,-4.1039457E0,-1.4342369E1,4.000575E0,-6.5512457E0,1.0047285E1,-1.8592175E1,6.052982E0,-1.6533386E1,-1.6819359E0,8.780564E0,4.690451E0,1.5003533E1,1.2410012E1,-3.136425E-1,2.055688E1,-6.7192473E0,1.0234961E1,-1.2400039E1,-2.383537E1,-1.235557E1,1.075648E0,-2.6162682E0,9.8191684E-1,1.84816E1,-1.7571121E1,1.1553113E1,-2.586845E1,-1.4960651E1,-8.981252E0,1.2536137E1,5.524151E0,-9.674583E0,9.475576E0,-8.986382E0,-2.1458483E1,9.625689E0,-2.1220846E1,-1.3012567E0,-4.0426235E0,8.225978E0,-2.8566704E1,-1.1458544E1,9.23862E0,-2.891089E1,-6.7840886E0,-2.6921537E1,1.274923E1,3.5410002E-1,-1.8504404E1,2.632685E-1],"categories":[],"categories_nodes":[],"categories_segments":[],"categories_sizes":[],"default_left":[0,0,0,0,0,0,0,0,0,0,0,0,0,0,1,0,0,0,0,0,0,0,0,0,0,0,0,0,0,0,0,0,0,0,0,0,0,0,0,0,0,0,0,0,0,0,0,0,0,0,0,0,0,0,0,0,0,0,0,0,0,0,0,0,0,0,0,0,0,0,0,0,0,0,0,0,0,0,0,0,0,0,0,0,0,0,0,0,0,0,0,0,0,0,0,0,0,0,0,0,0,0,0,0,0,0,0,0,0,0,0,0,0,0,0,0,0,0,0],"id":2,"left_children":[1,3,5,7,9,11,13,15,17,19,21,23,25,27,29,31,33,35,37,39,41,43,45,47,49,51,53,55,57,59,61,63,65,67,69,-1,71,73,75,77,-1,79,-1,81,83,85,87,89,91,93,95,-1,97,99,101,103,105,107,109,111,113,115,117,-1,-1,-1,-1,-1,-1,-1,-1,-1,-1,-1,-1,-1,-1,-1,-1,-1,-1,-1,-1,-1,-1,-1,-1,-1,-1,-1,-1,-1,-1,-1,-1,-1,-1,-1,-1,-1,-1,-1,-1,-1,-1,-1,-1,-1,-1,-1,-1,-1,-1,-1,-1,-1,-1,-1,-1],"loss_changes":[2.6692128E6,1.4166675E5,2.141959E6,8.788225E4,5.877225E4,1.6320536E6,1.068294E6,4.77055E4,3.7186072E5,7.890478E4,7.055683E4,5.999295E5,6.89882E5,1.18256125E5,9.051906E5,1.7255932E4,3.675275E4,7.005583E4,7.8840625E4,2.5704297E4,6.9949453E3,3.5989906E4,6.779172E3,3.0833516E4,6.7954125E4,2.86515E4,1.5492508E6,2.0731E4,2.857418E5,3.4294875E4,4.515786E5,1.7809902E3,1.1230588E4,2.1744125E4,4.803722E4,0E0,5.163615E4,2.3303062E4,1.4247305E4,3.4960981E3,0E0,4.7981787E2,0E0,4.5697305E3,4.5496703E4,5.675341E3,4.794375E3,4.8453888E2,9.078172E3,7.417273E4,1.5855E4,0E0,2.167379E5,9.900896E5,4.612855E5,1.6016444E5,8.159E3,3.8736703E4,6.5421625E4,4.6628094E4,1.40245E4,5.687547E4,1.1015132E6,0E0,0E0,0E0,0E0,0E0,0E0,0E0,0E0,0E0,0E0,0E0,0E0,0E0,0E0,0E0,0E0,0E0,0E0,0E0,0E0,0E0,0E0,0E0,0E0,0E0,0E0,0E0,0E0,0E0,0E0,0E0,0E0,0E0,0E0,0E0,0E0,0E0,0E0,0E0,0E0,0E0,0E0,0E0,0E0,0E0,0E0,0E0,0E0,0E0,0E0,0E0,0E0,0E0,0E0,0E0,0E0],"parents":[2147483647,0,0,1,1,2,2,3,3,4,4,5,5,6,6,7,7,8,8,9,9,10,10,11,11,12,12,13,13,14,14,15,15,16,16,17,17,18,18,19,19,20,20,21,21,22,22,23,23,24,24,25,25,26,26,27,27,28,28,29,29,30,30,31,31,32,32,33,33,34,34,36,36,37,37,38,38,39,39,41,41,43,43,44,44,45,45,46,46,47,47,48,48,49,49,50,50,52,52,53,53,54,54,55,55,56,56,57,57,58,58,59,59,60,60,61,61,62,62],"right_children":[2,4,6,8,10,12,14,16,18,20,22,24,26,28,30,32,34,36,38,40,42,44,46,48,50,52,54,56,58,60,62,64,66,68,70,-1,72,74,76,78,-1,80,-1,82,84,86,88,90,92,94,96,-1,98,100,102,104,106,108,110,112,114,116,118,-1,-1,-1,-1,-1,-1,-1,-1,-1,-1,-1,-1,-1,-1,-1,-1,-1,-1,-1,-1,-1,-1,-1,-1,-1,-1,-1,-1,-1,-1,-1,-1,-1,-1,-1,-1,-1,-1,-1,-1,-1,-1,-1,-1,-1,-1,-1,-1,-1,-1,-1,-1,-1,-1,-1,-1],"split_conditions":[5.849E3,1.5311323E9,1.494E4,-2.3502716E1,-2.3615929E1,-2.3680084E1,2.121E4,1.529E3,-2.3471945E1,4.557E3,4.104E3,-2.4011288E1,6.44E3,-2.2599255E1,-2.968818E1,1.5075677E9,1.5216895E9,2.215E3,-2.3460165E1,-2.3652802E1,5.125E3,1.529E3,1.5312475E9,1.5166674E9,1.145E4,-2.3646847E1,-2.3011335E1,-2.3035824E1,-2.2074064E1,-3.003215E1,2.224E4,1.4914275E9,-2.354479E1,5.125E3,-2.3586674E1,-1.9558765E1,-2.3489346E1,2.31E3,3.017E3,1.5330513E9,-2.066673E1,1.531827E9,3.1810488E1,-2.3552513E1,-2.3580046E1,4.265E3,1.5343455E9,1.19E4,1.19E4,1.5192868E9,1.5331535E9,1.2243802E1,6.429E3,-2.3656677E1,-2.1168375E1,-2.3491793E1,1.5353294E9,-2.2159376E1,-2.136757E1,1.5124449E9,1.4958039E9,-2.284229E1,2.279E4,1.469892E1,3.6347024E0,-1.6805286E1,-4.498521E0,-1.5137139E1,-1.9328537E1,-4.1039457E0,-1.4342369E1,4.000575E0,-6.5512457E0,1.0047285E1,-1.8592175E1,6.052982E0,-1.6533386E1,-1.6819359E0,8.780564E0,4.690451E0,1.5003533E1,1.2410012E1,-3.136425E-1,2.055688E1,-6.7192473E0,1.0234961E1,-1.2400039E1,-2.383537E1,-1.235557E1,1.075648E0,-2.6162682E0,9.8191684E-1,1.84816E1,-1.7571121E1,1.1553113E1,-2.586845E1,-1.4960651E1,-8.981252E0,1.2536137E1,5.524151E0,-9.674583E0,9.475576E0,-8.986382E0,-2.1458483E1,9.625689E0,-2.1220846E1,-1.3012567E0,-4.0426235E0,8.225978E0,-2.8566704E1,-1.1458544E1,9.23862E0,-2.891089E1,-6.7840886E0,-2.6921537E1,1.274923E1,3.5410002E-1,-1.8504404E1,2.632685E-1],"split_indices":[0,1,0,2,2,2,0,0,2,0,0,2,0,2,2,1,1,0,2,2,0,0,1,1,0,2,2,2,2,2,0,1,2,0,2,0,2,0,0,1,0,1,0,2,2,0,1,0,0,1,1,0,0,2,2,2,1,2,2,1,1,2,0,0,0,0,0,0,0,0,0,0,0,0,0,0,0,0,0,0,0,0,0,0,0,0,0,0,0,0,0,0,0,0,0,0,0,0,0,0,0,0,0,0,0,0,0,0,0,0,0,0,0,0,0,0,0,0,0],"split_type":[0,0,0,0,0,0,0,0,0,0,0,0,0,0,0,0,0,0,0,0,0,0,0,0,0,0,0,0,0,0,0,0,0,0,0,0,0,0,0,0,0,0,0,0,0,0,0,0,0,0,0,0,0,0,0,0,0,0,0,0,0,0,0,0,0,0,0,0,0,0,0,0,0,0,0,0,0,0,0,0,0,0,0,0,0,0,0,0,0,0,0,0,0,0,0,0,0,0,0,0,0,0,0,0,0,0,0,0,0,0,0,0,0,0,0,0,0,0,0],"sum_hessian":[1.1388E4,1.483E3,9.905E3,1.337E3,1.46E2,6.197E3,3.708E3,8.45E2,4.92E2,2.7E1,1.19E2,2.98E2,5.899E3,5.3E2,3.178E3,4.5E1,8E2,2.2E2,2.72E2,1.5E1,1.2E1,9.2E1,2.7E1,5E1,2.48E2,1.586E3,4.313E3,3.5E2,1.8E2,1.43E2,3.035E3,6E0,3.9E1,5.68E2,2.32E2,1.5E1,2.05E2,2.55E2,1.7E1,1E1,5E0,4E0,8E0,1.7E1,7.5E1,2E0,2.5E1,1.1E1,3.9E1,4.9E1,1.99E2,1.289E3,2.97E2,1.575E3,2.738E3,9.2E1,2.58E2,9.1E1,8.9E1,1E1,1.33E2,2.69E2,2.766E3,2E0,4E0,8E0,3.1E1,3.78E2,1.9E2,5.5E1,1.77E2,1.48E2,5.7E1,2E0,2.53E2,1.5E1,2E0,5E0,5E0,2E0,2E0,1.4E1,3E0,5E0,7E1,1E0,1E0,1.6E1,9E0,6E0,5E0,3E0,3.6E1,4E1,9E0,1.81E2,1.8E1,5E1,2.47E2,6.72E2,9.03E2,2.611E3,1.27E2,7.4E1,1.8E1,2.56E2,2E0,4.8E1,4.3E1,5.4E1,3.5E1,6E0,4E0,4E0,1.29E2,2.3E2,3.9E1,3.17E2,2.449E3],"tree_param":{"num_deleted":"0","num_feature":"3","num_nodes":"119","size_leaf_vector":"1"}},{"base_weights":[-4.4105772E-2,-2.7759216E1,4.1078496E0,-3.484565E1,-2.085213E1,2.6659513E1,-1.0364629E0,-3.0658312E1,-4.3663834E1,-2.625949E1,-9.578972E0,2.8490976E1,-7.770844E1,-1.9016167E1,1.266352E1,-3.8594185E1,-2.097923E1,-4.455402E1,1.7518836E0,-2.3825232E1,-1.8907688E1,5.892158E0,-3.5540344E1,2.6283834E1,1.089179E2,3.3374028E0,-2.427987E1,-6.6743855E0,-3.4962032E1,1.6121164E1,-4.151037E1,1.6765232E1,-3.985092E1,-2.8832731E1,-8.704096E0,-4.2216423E1,-5.76256E1,-2.6197126E1,3.8377026E1,-3.267921E1,1.0880509E1,9.469727E0,-3.894932E1,3.013305E1,9.171652E0,-1.2544599E1,1.1301468E2,7.2865464E-2,-4.4189342E1,-6.549248E1,-2.9642841E1,8.923047E0,2.427437E1,-2.9679173E1,5.605522E0,7.791406E0,-1.2357258E1,7.927704E-1,-9.473924E0,3.9852638E0,-1.1339598E1,-1.3736926E1,2.4054117E0,-1.8066757E1,3.4318419E0,-9.419783E0,-2.6564708E0,7.724672E0,1.9818106E1,-1.4057863E1,1.6152687E1,1.1948957E1,2.2653415E0,-7.481408E0,-1.6320843E1,8.431539E0,1.5651666E1,-2.0716135E1,8.585382E0,1.3453868E1,3.4514343E1,-2.3681893E0,1.5061331E1,-6.2760725E0,-2.635245E1,1.729783E1,-2.0738935E1,-1.0099377E1,-5.4684144E-1,6.055939E0,-1.1937698E1,1.017697E1,1.0338502E0,-4.99409E0,1.0225427E1],"categories":[],"categories_nodes":[],"categories_segments":[],"categories_sizes":[],"default_left":[0,0,0,0,0,0,1,0,0,0,0,0,0,0,0,0,0,0,0,0,0,0,0,0,0,0,0,0,0,0,0,0,0,0,0,0,0,0,0,0,0,0,0,0,0,0,0,0,0,0,0,0,0,0,0,0,0,0,0,0,0,0,0,0,0,0,0,0,0,0,0,0,0,0,0,0,0,0,0,0,0,0,0,0,0,0,0,0,0,0,0,0,0,0,0],"id":3,"left_children":[1,3,5,7,9,11,13,15,17,19,21,23,25,27,29,31,33,35,-1,37,-1,39,41,43,45,-1,-1,47,49,51,53,-1,55,57,59,61,63,65,67,69,71,-1,73,75,77,-1,79,81,83,85,87,89,91,-1,93,-1,-1,-1,-1,-1,-1,-1,-1,-1,-1,-1,-1,-1,-1,-1,-1,-1,-1,-1,-1,-1,-1,-1,-1,-1,-1,-1,-1,-1,-1,-1,-1,-1,-1,-1,-1,-1,-1,-1,-1],"loss_changes":[1.310668E6,7.1910125E4,1.1492505E6,2.5653375E4,4.5710812E4,3.539225E5,1.9873175E6,3.751947E4,1.0527875E4,4.405303E4,9.901574E4,3.1825938E5,1.0066344E4,6.864031E5,8.583801E5,3.464153E4,2.1632469E4,4.5645938E3,0E0,7.167566E4,0E0,3.0178732E4,2.2275688E4,1.15783875E5,3.436675E4,0E0,0E0,4.9814894E5,2.4522738E5,2.52434E5,7.445407E5,0E0,2.4883094E4,1.2015359E4,5.8078742E4,3.5909E4,6.4283203E3,4.1402125E4,4.5916074E3,2.460729E4,1.3000111E4,0E0,1.769736E4,6.2803375E4,4.963643E5,0E0,1.3545E3,6.669776E5,3.0288625E5,1.04772875E5,1.4516562E5,1.2562322E6,4.0543712E5,0E0,9.689495E4,0E0,0E0,0E0,0E0,0E0,0E0,0E0,0E0,0E0,0E0,0E0,0E0,0E0,0E0,0E0,0E0,0E0,0E0,0E0,0E0,0E0,0E0,0E0,0E0,0E0,0E0,0E0,0E0,0E0,0E0,0E0,0E0,0E0,0E0,0E0,0E0,0E0,0E0,0E0,0E0],"parents":[2147483647,0,0,1,1,2,2,3,3,4,4,5,5,6,6,7,7,8,8,9,9,10,10,11,11,12,12,13,13,14,14,15,15,16,16,17,17,19,19,21,21,22,22,23,23,24,24,27,27,28,28,29,29,30,30,32,32,33,33,34,34,35,35,36,36,37,37,38,38,39,39,40,40,42,42,43,43,44,44,46,46,47,47,48,48,49,49,50,50,51,51,52,52,54,54],"right_children":[2,4,6,8,10,12,14,16,18,20,22,24,26,28,30,32,34,36,-1,38,-1,40,42,44,46,-1,-1,48,50,52,54,-1,56,58,60,62,64,66,68,70,72,-1,74,76,78,-1,80,82,84,86,88,90,92,-1,94,-1,-1,-1,-1,-1,-1,-1,-1,-1,-1,-1,-1,-1,-1,-1,-1,-1,-1,-1,-1,-1,-1,-1,-1,-1,-1,-1,-1,-1,-1,-1,-1,-1,-1,-1,-1,-1,-1,-1,-1],"split_conditions":[5.849E3,1.5138153E9,8.71E3,1.5115252E9,-2.3502716E1,-2.3419754E1,-2.2929913E1,1.5046723E9,-2.3460165E1,-2.3512539E1,-2.3471945E1,-2.3460165E1,1.4943854E9,-2.3656677E1,3.7706E4,-2.3680084E1,-2.3502716E1,-2.3502108E1,1.7518836E0,-2.3523996E1,-1.8907688E1,2.215E3,2.31E3,-2.354479E1,1.4961531E9,3.3374028E0,-2.427987E1,8.9204E4,1.303E4,-2.136757E1,-1.8577526E1,1.6765232E1,2.215E3,1.529E3,-2.3471945E1,-2.3502716E1,5.138E3,1.5312475E9,3.804E3,1.5294619E9,2.336E3,9.469727E0,1.5211953E9,6.429E3,-2.3507395E1,-1.2544599E1,1.5041043E9,8.837E4,-2.6468502E1,1.4914275E9,2.279E4,-2.251225E1,-2.1168505E1,-2.9679173E1,-1.1829317E1,7.791406E0,-1.2357258E1,7.927704E-1,-9.473924E0,3.9852638E0,-1.1339598E1,-1.3736926E1,2.4054117E0,-1.8066757E1,3.4318419E0,-9.419783E0,-2.6564708E0,7.724672E0,1.9818106E1,-1.4057863E1,1.6152687E1,1.1948957E1,2.2653415E0,-7.481408E0,-1.6320843E1,8.431539E0,1.5651666E1,-2.0716135E1,8.585382E0,1.3453868E1,3.4514343E1,-2.3681893E0,1.5061331E1,-6.2760725E0,-2.635245E1,1.729783E1,-2.0738935E1,-1.0099377E1,-5.4684144E-1,6.055939E0,-1.1937698E1,1.017697E1,1.0338502E0,-4.99409E0,1.0225427E1],"split_indices":[0,1,0,1,2,2,2,1,2,2,2,2,1,2,0,2,2,2,0,2,0,0,0,2,1,0,0,0,0,2,2,0,0,0,2,2,0,1,0,1,0,0,1,0,2,0,1,0,2,1,0,2,2,0,2,0,0,0,0,0,0,0,0,0,0,0,0,0,0,0,0,0,0,0,0,0,0,0,0,0,0,0,0,0,0,0,0,0,0,0,0,0,0,0,0],"split_type":[0,0,0,0,0,0,0,0,0,0,0,0,0,0,0,0,0,0,0,0,0,0,0,0,0,0,0,0,0,0,0,0,0,0,0,0,0,0,0,0,0,0,0,0,0,0,0,0,0,0,0,0,0,0,0,0,0,0,0,0,0,0,0,0,0,0,0,0,0,0,0,0,0,0,0,0,0,0,0,0,0,0,0,0,0,0,0,0,0,0,0,0,0,0,0],"sum_hessian":[1.1388E4,1.483E3,9.905E3,7.3E2,7.53E2,1.839E3,8.066E3,4.98E2,2.32E2,5.08E2,2.45E2,1.808E3,3.1E1,3.488E3,4.578E3,2.72E2,2.26E2,2.28E2,4E0,4.78E2,3E1,1.54E2,9.1E1,1.761E3,4.7E1,1E0,3E1,1.967E3,1.521E3,4.304E3,2.74E2,3E0,2.69E2,1.37E2,8.9E1,1.97E2,3.1E1,4.61E2,1.7E1,1.7E1,1.37E2,4E0,8.7E1,1.437E3,3.24E2,1E0,4.6E1,1.668E3,2.99E2,2.24E2,1.297E3,2.287E3,2.017E3,1.23E2,1.51E2,5E0,2.64E2,1.1E1,1.26E2,5.1E1,3.8E1,1.84E2,1.3E1,3E1,1E0,3.54E2,1.07E2,1.3E1,4E0,1.5E1,2E0,1.3E1,1.24E2,4.7E1,4E1,1.318E3,1.19E2,6.4E1,2.6E2,2E0,4.4E1,1.44E3,2.28E2,1.96E2,1.03E2,6E0,2.18E2,1.133E3,1.64E2,1.858E3,4.29E2,1.378E3,6.39E2,8.5E1,6.6E1],"tree_param":{"num_deleted":"0","num_feature":"3","num_nodes":"95","size_leaf_vector":"1"}},{"base_weights":[-3.5809793E-2,-1.945134E1,2.8727994E0,4.3038306E0,-2.0490107E1,1.8676027E1,-7.3211086E-1,-4.729085E0,2.7148848E1,-2.8008839E1,-1.5529623E1,1.9969873E1,-5.505036E1,-1.3321066E1,8.860289E0,-3.563094E1,2.714225E0,9.679017E0,1.182106E0,-2.9404743E1,2.1638672E1,1.2136887E0,-2.2879642E1,1.840547E1,7.698053E1,2.8367925E0,-1.7230873E1,-4.682196E0,-2.448268E1,1.1286053E1,-2.9146162E1,5.0802917E0,-1.43965435E1,3.2358517E1,-1.05615425E1,8.947614E0,-1.8307444E1,-3.6682343E1,-2.4082077E1,1.2976443E1,1.1430086E1,-2.4025517E1,8.003024E0,-2.6696247E1,-5.5475373E0,2.158105E1,7.6431913E0,-1.0662909E1,2.4039267E1,-1.6402624E1,1.39686985E1,-3.818014E1,-1.7294422E1,2.0940016E1,6.6164703E0,-6.949075E1,3.9582818E0,-1.0149727E1,1.2435858E1,6.2090154E0,1.217126E1,-2.0383022E1,-1.6735059E-1,-6.557886E0,-1.6804643E0,1.1228754E1,-1.1248983E1,5.825649E-1,-9.103027E0,5.0072536E0,1.3314332E0,-8.829566E0,-1.163677E0,3.227783E1,1.0444415E0,-7.4996867E0,-1.4602419E1,1.4097024E1,-3.3987045E0,6.0328937E0,1.4772626E1,-4.524914E0,6.0196342E0,-1.3236187E1,-5.5790746E-1,1.2805371E0,2.1559202E1,-1.5976172E1,-7.472423E0,5.957699E0,-8.140889E0,-2.0444255E-1,7.964938E0,-2.2776428E1,3.6786978E0,-2.0972666E1,-8.7969885E0,-1.0612731E0,2.0368256E1],"categories":[],"categories_nodes":[],"categories_segments":[],"categories_sizes":[],"default_left":[0,0,0,0,0,0,1,0,0,0,0,0,0,0,0,0,0,0,0,0,0,0,0,0,0,0,0,0,0,0,0,0,0,0,0,0,0,0,0,0,0,0,0,0,0,0,0,0,0,0,0,0,0,0,0,0,0,0,0,0,0,0,0,0,0,0,0,0,0,0,0,0,0,0,0,0,0,0,0,0,0,0,0,0,0,0,0,0,0,0,0,0,0,0,0,0,0,0,0],"id":4,"left_children":[1,3,5,7,9,11,13,15,17,19,21,23,25,27,29,31,33,-1,35,37,39,41,43,45,47,-1,-1,49,51,53,55,57,-1,59,61,-1,63,65,67,69,-1,71,73,75,77,79,81,-1,-1,83,85,87,89,91,93,95,97,-1,-1,-1,-1,-1,-1,-1,-1,-1,-1,-1,-1,-1,-1,-1,-1,-1,-1,-1,-1,-1,-1,-1,-1,-1,-1,-1,-1,-1,-1,-1,-1,-1,-1,-1,-1,-1,-1,-1,-1,-1,-1],"loss_changes":[6.432177E5,3.6707438E4,5.6435075E5,1.3128888E4,5.260075E4,1.7661819E5,9.7427506E5,1.0677266E4,2.3524043E3,3.972325E4,1.0573945E5,1.5992375E5,5.4680547E3,3.363077E5,4.224883E5,4.7716104E3,1.5296684E4,0E0,2.7790044E3,2.0382812E4,1.7871011E3,4.5259277E4,3.9343312E4,6.0054125E4,1.9863562E4,0E0,0E0,4.30427E5,1.4919725E5,1.9393075E5,3.6756106E5,5.648516E3,0E0,3.0956543E2,1.5460944E4,0E0,1.2953003E1,1.5283094E4,5.220133E4,3.0650183E2,0E0,5.9853496E3,9.328784E4,1.7024812E4,3.3640562E4,5.4362625E4,1.1407404E5,0E0,0E0,4.8726703E5,4.265081E5,1.0330494E5,3.661982E5,1.7019038E5,1.3537201E6,3.25625E1,7.308684E4,0E0,0E0,0E0,0E0,0E0,0E0,0E0,0E0,0E0,0E0,0E0,0E0,0E0,0E0,0E0,0E0,0E0,0E0,0E0,0E0,0E0,0E0,0E0,0E0,0E0,0E0,0E0,0E0,0E0,0E0,0E0,0E0,0E0,0E0,0E0,0E0,0E0,0E0,0E0,0E0,0E0,0E0],"parents":[2147483647,0,0,1,1,2,2,3,3,4,4,5,5,6,6,7,7,8,8,9,9,10,10,11,11,12,12,13,13,14,14,15,15,16,16,18,18,19,19,20,20,21,21,22,22,23,23,24,24,27,27,28,28,29,29,30,30,31,31,33,33,34,34,36,36,37,37,38,38,39,39,41,41,42,42,43,43,44,44,45,45,46,46,49,49,50,50,51,51,52,52,53,53,54,54,55,55,56,56],"right_children":[2,4,6,8,10,12,14,16,18,20,22,24,26,28,30,32,34,-1,36,38,40,42,44,46,48,-1,-1,50,52,54,56,58,-1,60,62,-1,64,66,68,70,-1,72,74,76,78,80,82,-1,-1,84,86,88,90,92,94,96,98,-1,-1,-1,-1,-1,-1,-1,-1,-1,-1,-1,-1,-1,-1,-1,-1,-1,-1,-1,-1,-1,-1,-1,-1,-1,-1,-1,-1,-1,-1,-1,-1,-1,-1,-1,-1,-1,-1,-1,-1,-1,-1],"split_conditions":[5.849E3,1.529E3,8.71E3,1.5307028E9,3.47E3,-2.3419754E1,-2.2929913E1,-2.354479E1,-2.3552513E1,-2.3460165E1,3.809E3,-2.3460165E1,1.4943854E9,-2.3656677E1,3.7706E4,-2.3549276E1,1.5119963E9,9.679017E0,1.534153E9,-2.3507395E1,1.5125791E9,-2.357242E1,1.5271743E9,-2.3586674E1,1.4961531E9,2.8367925E0,-1.7230873E1,-2.375718E1,1.327E4,-2.274139E1,-1.8577526E1,1.5076901E9,-1.43965435E1,1.5075677E9,1.5125791E9,8.947614E0,1.5343455E9,-2.3580046E1,-2.3471945E1,1.5054897E9,1.1430086E1,1.5142819E9,-2.3547285E1,5.727E3,1.5281638E9,-2.3646847E1,-2.3507395E1,-1.0662909E1,2.4039267E1,8.3402E4,9.92E3,1.5069153E9,1.3473E4,-2.2900814E1,1.405E4,5.828E4,-6.825533E0,-1.0149727E1,1.2435858E1,6.2090154E0,1.217126E1,-2.0383022E1,-1.6735059E-1,-6.557886E0,-1.6804643E0,1.1228754E1,-1.1248983E1,5.825649E-1,-9.103027E0,5.0072536E0,1.3314332E0,-8.829566E0,-1.163677E0,3.227783E1,1.0444415E0,-7.4996867E0,-1.4602419E1,1.4097024E1,-3.3987045E0,6.0328937E0,1.4772626E1,-4.524914E0,6.0196342E0,-1.3236187E1,-5.5790746E-1,1.2805371E0,2.1559202E1,-1.5976172E1,-7.472423E0,5.957699E0,-8.140889E0,-2.0444255E-1,7.964938E0,-2.2776428E1,3.6786978E0,-2.0972666E1,-8.7969885E0,-1.0612731E0,2.0368256E1],"split_indices":[0,0,0,1,0,2,2,2,2,2,0,2,1,2,0,2,1,0,1,2,1,2,1,2,1,0,0,2,0,2,2,1,0,1,1,0,1,2,2,1,0,1,2,0,1,2,2,0,0,0,0,1,0,2,0,0,2,0,0,0,0,0,0,0,0,0,0,0,0,0,0,0,0,0,0,0,0,0,0,0,0,0,0,0,0,0,0,0,0,0,0,0,0,0,0,0,0,0,0],"split_type":[0,0,0,0,0,0,0,0,0,0,0,0,0,0,0,0,0,0,0,0,0,0,0,0,0,0,0,0,0,0,0,0,0,0,0,0,0,0,0,0,0,0,0,0,0,0,0,0,0,0,0,0,0,0,0,0,0,0,0,0,0,0,0,0,0,0,0,0,0,0,0,0,0,0,0,0,0,0,0,0,0,0,0,0,0,0,0,0,0,0,0,0,0,0,0,0,0,0,0],"sum_hessian":[1.1388E4,1.483E3,9.905E3,6.2E1,1.421E3,1.839E3,8.066E3,4.5E1,1.7E1,5.63E2,8.58E2,1.808E3,3.1E1,3.488E3,4.578E3,8E0,3.7E1,1.4E1,3E0,5.48E2,1.5E1,2.62E2,5.96E2,1.761E3,4.7E1,1E0,3E1,1.967E3,1.521E3,4.304E3,2.74E2,2E0,6E0,1.1E1,2.6E1,1E0,2E0,2.29E2,3.19E2,1.1E1,4E0,5.5E1,2.07E2,4.88E2,1.08E2,1.359E3,4.02E2,1E0,4.6E1,1.208E3,7.59E2,5.22E2,9.99E2,1.402E3,2.902E3,1.23E2,1.51E2,1E0,1E0,6E0,5E0,3E0,2.3E1,1E0,1E0,2E0,2.27E2,6.2E1,2.57E2,7E0,4E0,4.3E1,1.2E1,8E0,1.99E2,4.55E2,3.3E1,1E1,9.8E1,1.292E3,6.7E1,1.42E2,2.6E2,4.15E2,7.93E2,6.51E2,1.08E2,2.43E2,2.79E2,2.09E2,7.9E2,2.89E2,1.113E3,1.85E2,2.717E3,1.21E2,2E0,1.36E2,1.5E1],"tree_param":{"num_deleted":"0","num_feature":"3","num_nodes":"99","size_leaf_vector":"1"}},{"base_weights":[-2.50528E-2,-3.60905E1,9.3721485E-1,-7.81065E1,-1.3927821E1,4.997131E1,1.4081129E-2,-4.2230164E1,-1.0921453E2,-5.2911274E1,5.053041E1,5.0637302E1,-1.28837E1,-6.0496407E1,1.4357152E0,-3.44696E1,-6.90494E1,1.4765051E1,-1.1313242E2,-2.7745918E1,-5.9437874E1,5.362887E1,-1.7099758E1,5.2563847E1,3.8639496E1,-2.8500431E1,-3.7999744E1,-1.3604307E1,3.8727055E0,-4.7550453E1,1.4920552E-2,-2.7198244E1,-1.3967077E1,-9.9863625E1,-4.641498E1,1.2607499E1,-3.8218323E1,-5.574521E1,-2.2325132E1,5.5622013E1,-1.28837E1,-1.8509953E1,5.5000644E0,1.5825973E1,2.9983006E0,-7.9324037E-1,4.005652E1,1.0995756E1,-6.118989E1,1.1106916E1,-1.4349407E1,3.398689E1,2.947087E0,-1.5712339E1,3.514734E0,-1.4278327E0,4.777347E0,-6.899349E0,-9.8726505E-1,-2.0400364E1,-3.223748E1,-1.3166521E1,1.3829021E1,2.4780006E0,-1.7493855E1,1.3700434E1,2.1513695E1,4.777347E0,1.2351503E1,-7.188857E0,1.1141077E1,-1.2149647E1,-1.95149E1,-2.33114E0,8.604191E0,-3.4833777E0,-5.887081E0,2.1881668E1,4.796293E0,-1.2108023E1,1.2045962E0],"categories":[],"categories_nodes":[],"categories_segments":[],"categories_sizes":[],"default_left":[1,0,0,1,0,0,0,0,0,0,0,0,0,0,0,0,0,0,0,0,0,0,0,0,0,0,0,0,0,0,0,0,0,0,0,0,0,0,0,0,0,0,0,0,0,0,0,0,0,0,0,0,0,0,0,0,0,0,0,0,0,0,0,0,0,0,0,0,0,0,0,0,0,0,0,0,0,0,0,0,0],"id":5,"left_children":[1,3,5,7,9,11,13,15,17,19,21,23,-1,25,27,29,31,-1,33,35,37,39,41,43,45,-1,47,49,51,53,55,-1,57,59,-1,-1,61,63,-1,65,-1,-1,-1,-1,-1,-1,67,69,71,73,75,77,79,-1,-1,-1,-1,-1,-1,-1,-1,-1,-1,-1,-1,-1,-1,-1,-1,-1,-1,-1,-1,-1,-1,-1,-1,-1,-1,-1,-1],"loss_changes":[3.9528466E5,2.7454353E5,5.021695E5,1.0922419E5,4.9267053E5,1.48605E4,9.368857E5,7.818375E3,3.9086625E4,1.8388625E4,1.6423672E4,2.6843125E3,0E0,1.9045181E5,3.9007075E5,1.804418E4,1.0637805E4,0E0,1.37934375E4,2.1334193E4,1.1616875E3,1.60553125E4,7.4524897E3,8.6753125E2,1.9779141E3,0E0,1.7451342E5,2.7483281E4,2.5517217E5,8.904742E3,9.8728827E2,0E0,3.0997302E2,3.098E3,0E0,0E0,1.3496867E4,1.3793391E4,0E0,7.936328E3,0E0,0E0,0E0,0E0,0E0,0E0,1.7860156E2,4.6582848E4,5.6713125E3,1.4819676E4,2.0582406E4,1.9023597E5,4.1124747E5,0E0,0E0,0E0,0E0,0E0,0E0,0E0,0E0,0E0,0E0,0E0,0E0,0E0,0E0,0E0,0E0,0E0,0E0,0E0,0E0,0E0,0E0,0E0,0E0,0E0,0E0,0E0,0E0],"parents":[2147483647,0,0,1,1,2,2,3,3,4,4,5,5,6,6,7,7,8,8,9,9,10,10,11,11,13,13,14,14,15,15,16,16,18,18,19,19,20,20,21,21,22,22,23,23,24,24,26,26,27,27,28,28,29,29,30,30,32,32,33,33,36,36,37,37,39,39,46,46,47,47,48,48,49,49,50,50,51,51,52,52],"right_children":[2,4,6,8,10,12,14,16,18,20,22,24,-1,26,28,30,32,-1,34,36,38,40,42,44,46,-1,48,50,52,54,56,-1,58,60,-1,-1,62,64,-1,66,-1,-1,-1,-1,-1,-1,68,70,72,74,76,78,80,-1,-1,-1,-1,-1,-1,-1,-1,-1,-1,-1,-1,-1,-1,-1,-1,-1,-1,-1,-1,-1,-1,-1,-1,-1,-1,-1,-1],"split_conditions":[-2.6911411E1,8.9204E4,-2.6468502E1,-2.7541775E1,-2.968818E1,8.956E4,-2.5435488E1,1.5305481E9,1.4967309E9,1.504282E9,1.5335933E9,1.5240893E9,-1.28837E1,8.3402E4,5.849E3,8.8301E4,1.5337053E9,1.4765051E1,8.837E4,-3.003215E1,1.5259794E9,9.95E4,1.5347355E9,8.9204E4,1.5254419E9,-2.8500431E1,8.9204E4,-2.3652802E1,-2.4011288E1,1.5290828E9,1.5271743E9,-2.7198244E1,7.1825E4,1.5085001E9,-4.641498E1,1.2607499E1,1.5028539E9,-3.003215E1,-2.2325132E1,1.5314337E9,-1.28837E1,-1.8509953E1,5.5000644E0,1.5825973E1,2.9983006E0,-7.9324037E-1,1.5256701E9,1.5028539E9,-2.628315E1,1.5259434E9,4.104E3,8.023E4,-2.375718E1,-1.5712339E1,3.514734E0,-1.4278327E0,4.777347E0,-6.899349E0,-9.8726505E-1,-2.0400364E1,-3.223748E1,-1.3166521E1,1.3829021E1,2.4780006E0,-1.7493855E1,1.3700434E1,2.1513695E1,4.777347E0,1.2351503E1,-7.188857E0,1.1141077E1,-1.2149647E1,-1.95149E1,-2.33114E0,8.604191E0,-3.4833777E0,-5.887081E0,2.1881668E1,4.796293E0,-1.2108023E1,1.2045962E0],"split_indices":[2,0,2,2,2,0,2,1,1,1,1,1,0,0,0,0,1,0,0,2,1,0,1,0,1,0,0,2,2,1,1,0,0,1,0,0,1,2,0,1,0,0,0,0,0,0,1,1,2,1,0,0,2,0,0,0,0,0,0,0,0,0,0,0,0,0,0,0,0,0,0,0,0,0,0,0,0,0,0,0,0],"split_type":[0,0,0,0,0,0,0,0,0,0,0,0,0,0,0,0,0,0,0,0,0,0,0,0,0,0,0,0,0,0,0,0,0,0,0,0,0,0,0,0,0,0,0,0,0,0,0,0,0,0,0,0,0,0,0,0,0,0,0,0,0,0,0,0,0,0,0,0,0,0,0,0,0,0,0,0,0,0,0,0,0],"sum_hessian":[1.1388E4,2.95E2,1.1093E4,1.01E2,1.94E2,2.04E2,1.0889E4,4.8E1,5.3E1,1.21E2,7.3E1,2.03E2,1E0,2.49E2,1.064E4,3.9E1,9E0,1E0,5.2E1,2.6E1,9.5E1,7E1,3E0,1.72E2,3.1E1,9.7E1,1.52E2,1.483E3,9.157E3,2.8E1,1.1E1,6E0,3E0,4.2E1,1E1,3E0,2.3E1,8E1,1.5E1,6.9E1,1E0,1E0,2E0,1.71E2,1E0,1E0,3E1,4.9E1,1.03E2,4.3E1,1.44E3,2.72E2,8.885E3,2.6E1,2E0,9E0,2E0,1E0,2E0,1E1,3.2E1,2.2E1,1E0,3E0,7.7E1,4.5E1,2.4E1,2E0,2.8E1,2.1E1,2.8E1,1.8E1,8.5E1,2.1E1,2.2E1,9.5E2,4.9E2,8.5E1,1.87E2,2.13E2,8.672E3],"tree_param":{"num_deleted":"0","num_feature":"3","num_nodes":"81","size_leaf_vector":"1"}},{"base_weights":[-3.195335E-2,-4.7699523E0,4.7077155E0,-3.881951E0,-2.877936E1,6.7844E0,-1.3685194E1,-5.873888E0,2.45416E1,-1.7383783E1,-1.3718535E1,3.0507512E0,1.718993E1,-3.503113E0,-3.6546593E1,-5.0673056E0,-6.7745094E1,-6.3010944E1,3.2691864E1,2.5055033E1,-3.3223072E1,3.8479612E0,-4.890534E1,1.5267426E1,4.188634E1,-1.328372E1,1.6756792E1,-2.875066E1,-3.260624E1,-1.8928194E0,-1.39113035E1,-2.9293997E1,-7.574731E1,1.2550294E1,-6.790026E1,3.9755116E1,-2.7977129E1,-1.244953E1,1.4659494E1,2.2269072E1,-3.7451904E1,-7.656971E0,5.920918E0,-5.677413E1,8.2325325E0,2.0257532E1,-2.1013315E0,2.3022728E1,4.7052884E0,-6.2835484E1,-4.4313135E0,8.105126E1,4.442013E0,-4.993766E1,-8.482518E0,-1.3270223E0,5.9785805E0,-7.7404723E0,-9.06098E-1,-1.7615635E1,4.4464135E0,-2.0393875E1,-2.8504894E1,-1.4836629E1,-2.2394974E1,2.2986551E1,9.6393795E0,-2.6754412E1,1.0434419E1,9.218671E0,-1.1955561E1,1.9204514E0,9.770811E0,-3.9468725E0,-1.1646921E1,-9.058638E-1,-7.06149E0,3.0579963E0,-5.927455E-1,4.9153624E0,-1.8476284E1,6.0286283E0,1.1941088E1,-3.9041855E0,5.9238787E0,9.550388E0,-3.491771E1,2.5285723E-2,-2.0341516E1,-6.730278E0,6.2010055E0,2.536019E1,9.593131E0,-1.11984215E1,6.5502143E0,-1.6119894E1,-9.6719325E-1,7.5377965E-1,-2.4503561E1],"categories":[],"categories_nodes":[],"categories_segments":[],"categories_sizes":[],"default_left":[0,0,0,0,0,0,0,0,0,0,0,0,0,0,0,0,0,0,0,0,0,0,0,0,0,0,0,0,0,0,0,0,0,0,0,0,0,0,0,0,0,0,0,0,0,0,0,0,0,0,0,0,0,0,0,0,0,0,0,0,0,0,0,0,0,0,0,0,0,0,0,0,0,0,0,0,0,0,0,0,0,0,0,0,0,0,0,0,0,0,0,0,0,0,0,0,0,0,0],"id":6,"left_children":[1,3,5,7,9,11,13,15,17,19,-1,21,23,25,27,29,31,33,35,37,39,41,43,45,47,49,51,53,-1,55,57,59,61,-1,63,65,67,69,-1,71,73,75,77,79,-1,81,83,-1,85,87,89,91,93,95,97,-1,-1,-1,-1,-1,-1,-1,-1,-1,-1,-1,-1,-1,-1,-1,-1,-1,-1,-1,-1,-1,-1,-1,-1,-1,-1,-1,-1,-1,-1,-1,-1,-1,-1,-1,-1,-1,-1,-1,-1,-1,-1,-1,-1],"loss_changes":[2.5578006E5,1.21329195E5,2.175824E5,3.11203E5,3.841342E4,1.9874598E5,1.3441686E5,2.5591498E5,2.5894742E5,8.3513086E4,0E0,1.56217E5,6.3504594E4,7.9682414E4,9.698331E4,1.4231469E5,1.8088844E4,1.8731828E4,1.4252397E5,3.0969719E4,2.1954055E4,8.854981E4,3.5801312E4,1.0881584E5,1.2534955E5,1.1859634E5,1.03362125E5,6.9142625E4,0E0,2.0617303E5,1.7331808E5,1.7745402E4,1.6233438E3,0E0,4.3046875E1,8.073369E4,1.3753992E5,1.7789264E4,0E0,9.355918E2,2.2875625E3,4.16876E4,1.0612625E5,1.9320766E4,0E0,2.2894688E3,6.7251445E4,0E0,1.6139967E5,1.2825781E4,1.0485213E5,8.8596875E2,8.145283E4,1.3832953E4,6.780832E4,0E0,0E0,0E0,0E0,0E0,0E0,0E0,0E0,0E0,0E0,0E0,0E0,0E0,0E0,0E0,0E0,0E0,0E0,0E0,0E0,0E0,0E0,0E0,0E0,0E0,0E0,0E0,0E0,0E0,0E0,0E0,0E0,0E0,0E0,0E0,0E0,0E0,0E0,0E0,0E0,0E0,0E0,0E0,0E0],"parents":[2147483647,0,0,1,1,2,2,3,3,4,4,5,5,6,6,7,7,8,8,9,9,11,11,12,12,13,13,14,14,15,15,16,16,17,17,18,18,19,19,20,20,21,21,22,22,23,23,24,24,25,25,26,26,27,27,29,29,30,30,31,31,32,32,34,34,35,35,36,36,37,37,39,39,40,40,41,41,42,42,43,43,45,45,46,46,48,48,49,49,50,50,51,51,52,52,53,53,54,54],"right_children":[2,4,6,8,10,12,14,16,18,20,-1,22,24,26,28,30,32,34,36,38,40,42,44,46,48,50,52,54,-1,56,58,60,62,-1,64,66,68,70,-1,72,74,76,78,80,-1,82,84,-1,86,88,90,92,94,96,98,-1,-1,-1,-1,-1,-1,-1,-1,-1,-1,-1,-1,-1,-1,-1,-1,-1,-1,-1,-1,-1,-1,-1,-1,-1,-1,-1,-1,-1,-1,-1,-1,-1,-1,-1,-1,-1,-1,-1,-1,-1,-1,-1,-1],"split_conditions":[1.5160735E9,8.9204E4,3.7706E4,8.3402E4,-2.628315E1,-2.136757E1,-2.3419754E1,8.023E4,-2.6911411E1,9.001E4,-1.3718535E1,-2.2074064E1,3.557E4,-2.5435488E1,8.68E4,1.494E4,1.4975089E9,1.4967309E9,1.5135695E9,8.956E4,-3.003215E1,4.557E3,1.75E4,-2.1168505E1,3.559E4,8.3402E4,8.3402E4,5.828E4,-3.260624E1,1.484E4,2.279E4,1.4952154E9,-2.5435488E1,1.2550294E1,1.5085001E9,8.5501E4,8.5501E4,1.5120716E9,1.4659494E1,9.203E4,1.4958039E9,4.104E3,1.3232E4,1.366E4,8.2325325E0,1.494E4,-1.9810118E1,2.3022728E1,1.5329684E9,1.5162629E9,-2.6911411E1,8.023E4,1.5199354E9,-1.5847734E1,1.5344762E9,-1.3270223E0,5.9785805E0,-7.7404723E0,-9.06098E-1,-1.7615635E1,4.4464135E0,-2.0393875E1,-2.8504894E1,-1.4836629E1,-2.2394974E1,2.2986551E1,9.6393795E0,-2.6754412E1,1.0434419E1,9.218671E0,-1.1955561E1,1.9204514E0,9.770811E0,-3.9468725E0,-1.1646921E1,-9.058638E-1,-7.06149E0,3.0579963E0,-5.927455E-1,4.9153624E0,-1.8476284E1,6.0286283E0,1.1941088E1,-3.9041855E0,5.9238787E0,9.550388E0,-3.491771E1,2.5285723E-2,-2.0341516E1,-6.730278E0,6.2010055E0,2.536019E1,9.593131E0,-1.11984215E1,6.5502143E0,-1.6119894E1,-9.6719325E-1,7.5377965E-1,-2.4503561E1],"split_indices":[1,0,0,0,2,2,2,0,2,0,0,2,0,2,0,0,1,1,1,0,2,0,0,2,0,0,0,0,0,0,0,1,2,0,1,0,0,1,0,0,1,0,0,0,0,0,2,0,1,1,2,0,1,2,1,0,0,0,0,0,0,0,0,0,0,0,0,0,0,0,0,0,0,0,0,0,0,0,0,0,0,0,0,0,0,0,0,0,0,0,0,0,0,0,0,0,0,0,0],"split_type":[0,0,0,0,0,0,0,0,0,0,0,0,0,0,0,0,0,0,0,0,0,0,0,0,0,0,0,0,0,0,0,0,0,0,0,0,0,0,0,0,0,0,0,0,0,0,0,0,0,0,0,0,0,0,0,0,0,0,0,0,0,0,0,0,0,0,0,0,0,0,0,0,0,0,0,0,0,0,0,0,0,0,0,0,0,0,0,0,0,0,0,0,0,0,0,0,0,0,0],"sum_hessian":[1.1388E4,5.695E3,5.693E3,5.493E3,2.02E2,5.116E3,5.77E2,5.134E3,3.59E2,1.22E2,8E1,3.766E3,1.35E3,4E2,1.77E2,5.069E3,6.5E1,3E1,3.29E2,3.3E1,8.9E1,3.71E3,5.6E1,1.254E3,9.6E1,2.7E2,1.3E2,1.61E2,1.6E1,3.731E3,1.338E3,1.2E1,5.3E1,1E0,2.9E1,2.95E2,3.4E1,1.3E1,2E1,6E0,8.3E1,5.66E2,3.144E3,5.1E1,5E0,9.74E2,2.8E2,4.9E1,4.7E1,4E1,2.3E2,2E1,1.1E2,7.8E1,8.3E1,3.344E3,3.87E2,6.39E2,6.99E2,7E0,5E0,4.1E1,1.2E1,1E1,1.9E1,4.9E1,2.46E2,1.7E1,1.7E1,5E0,8E0,3E0,3E0,5E0,7.8E1,4.39E2,1.27E2,2.04E3,1.104E3,3E0,4.8E1,9.68E2,6E0,1.87E2,9.3E1,3.9E1,8E0,3E0,3.7E1,1.34E2,9.6E1,1.8E1,2E0,3.2E1,7.8E1,7.2E1,6E0,7.3E1,1E1],"tree_param":{"num_deleted":"0","num_feature":"3","num_nodes":"99","size_leaf_vector":"1"}},{"base_weights":[-3.4422964E-2,-3.703179E0,3.0519397E0,8.7493676E-1,-7.9134765E0,-1.1259173E1,4.777741E0,-1.6959037E0,3.1534002E1,-2.3035282E1,-4.089208E0,-4.097588E0,-2.7806633E1,6.352996E1,4.066153E0,1.5831815E0,-1.9684528E1,9.774948E0,2.566932E1,-5.8815975E0,-4.561543E1,1.38010235E1,-7.570268E0,2.496457E1,-1.0185508E1,8.391903E0,-3.2302498E1,-4.1471943E1,2.1291954E1,4.8964467E0,-1.6002073E1,-1.1452113E1,9.405199E0,-3.8712387E1,4.285092E0,-1.4367384E1,9.529037E0,-2.6145248E1,2.9542507E1,-9.4489174E1,-1.8484642E1,4.6736536E0,-1.1305111E2,-1.2759467E1,5.4625397E0,-1.4957772E1,4.272542E1,-7.7342577E0,-3.3601894E1,-8.362884E0,1.7177284E1,-3.3479523E1,2.1645167E0,2.6309602E0,-2.3366932E1,3.5534358E-1,9.365198E0,2.6863901E1,-2.411304E1,-2.6123657E0,-5.184026E0,-2.998657E1,3.0632553E0,8.63061E0,-1.21828985E1,1.6844074E0,-3.0669289E1,-1.047149E1,1.7603594E1,1.6078693E1,-3.8902566E0,-3.2951145E1,-1.2964478E1,2.899913E-1,-2.6773758E1,2.3435419E0,-4.3565937E1,-6.665968E0,-1.551242E0,6.1385207E0,-6.073593E0,8.508378E0,2.00043E1,-1.230188E1,-1.0693942E0,2.183413E1,-6.9163723E0,-1.0770713E1,-4.5323725E0,2.4994895E0,-1.9749924E0,-1.7240541E1,3.00776E0,9.310698E0,-8.394015E0,-5.5449696E0,-2.3399769E1],"categories":[],"categories_nodes":[],"categories_segments":[],"categories_sizes":[],"default_left":[0,0,1,0,0,0,0,0,0,0,0,0,0,0,0,0,0,0,0,0,0,0,0,0,0,0,0,0,0,0,0,0,0,0,0,0,0,0,0,0,0,0,0,1,0,0,0,0,0,0,0,0,0,0,0,0,0,0,0,0,0,0,0,0,0,0,0,0,0,0,0,0,0,0,0,0,0,0,0,0,0,0,0,0,0,0,0,0,0,0,0,0,0,0,0,0,0],"id":7,"left_children":[1,3,5,7,9,11,13,15,17,19,21,23,25,27,29,31,33,-1,35,37,39,41,43,45,47,49,51,53,-1,55,57,59,61,63,65,-1,-1,67,69,71,73,-1,75,77,79,-1,81,83,-1,85,-1,87,-1,-1,-1,89,91,93,95,-1,-1,-1,-1,-1,-1,-1,-1,-1,-1,-1,-1,-1,-1,-1,-1,-1,-1,-1,-1,-1,-1,-1,-1,-1,-1,-1,-1,-1,-1,-1,-1,-1,-1,-1,-1,-1,-1],"loss_changes":[1.2897022E5,1.0031521E5,1.5283647E5,1.9662947E5,1.5668253E5,7.881108E4,2.3056019E5,1.3581747E5,3.5114062E2,2.1160269E5,1.3493412E5,8.2702766E4,3.2982562E4,5.4525875E4,9.098908E4,1.9873025E5,1.6207802E5,0E0,1.6763004E4,2.2473277E5,3.111854E5,8.1369914E4,1.22682586E5,1.0977397E5,9.54748E4,1.930973E4,8.5674375E3,9.831571E3,0E0,1.063323E5,7.609531E4,1.1540625E4,1.0833426E5,2.6518281E4,2.2950525E4,0E0,0E0,1.4991178E5,1.1725993E5,6.1357688E4,2.1067488E5,0E0,2.0574426E4,9.29993E4,1.9976792E5,0E0,2.0819555E4,5.2294258E4,0E0,2.3136305E4,0E0,7.2026094E3,0E0,0E0,0E0,1.4395102E5,1.1718934E5,8.876223E3,5.407485E4,0E0,0E0,0E0,0E0,0E0,0E0,0E0,0E0,0E0,0E0,0E0,0E0,0E0,0E0,0E0,0E0,0E0,0E0,0E0,0E0,0E0,0E0,0E0,0E0,0E0,0E0,0E0,0E0,0E0,0E0,0E0,0E0,0E0,0E0,0E0,0E0,0E0,0E0],"parents":[2147483647,0,0,1,1,2,2,3,3,4,4,5,5,6,6,7,7,8,8,9,9,10,10,11,11,12,12,13,13,14,14,15,15,16,16,18,18,19,19,20,20,21,21,22,22,23,23,24,24,25,25,26,26,27,27,29,29,30,30,31,31,32,32,33,33,34,34,37,37,38,38,39,39,40,40,42,42,43,43,44,44,46,46,47,47,49,49,51,51,55,55,56,56,57,57,58,58],"right_children":[2,4,6,8,10,12,14,16,18,20,22,24,26,28,30,32,34,-1,36,38,40,42,44,46,48,50,52,54,-1,56,58,60,62,64,66,-1,-1,68,70,72,74,-1,76,78,80,-1,82,84,-1,86,-1,88,-1,-1,-1,90,92,94,96,-1,-1,-1,-1,-1,-1,-1,-1,-1,-1,-1,-1,-1,-1,-1,-1,-1,-1,-1,-1,-1,-1,-1,-1,-1,-1,-1,-1,-1,-1,-1,-1,-1,-1,-1,-1,-1,-1],"split_conditions":[1.5138153E9,1.3232E4,-2.3680084E1,1.317E4,1.484E4,-2.4011288E1,-2.3665703E1,9.32E3,1.5121181E9,1.366E4,1.494E4,8.023E4,1.145E4,9.32E3,3.7706E4,5.849E3,-2.3011335E1,9.774948E0,1.5123468E9,1.327E4,-2.1168505E1,-2.125334E1,8.3402E4,-2.5435488E1,-2.4718586E1,1.5330513E9,7.1825E4,5.125E3,2.1291954E1,-2.2900814E1,-2.3419754E1,1.5115252E9,-2.3665703E1,1.489023E9,1.3101E4,-1.4367384E1,9.529037E0,1.5114007E9,1.503657E9,1.5114007E9,1.4781E4,4.6736536E0,1.5085001E9,-2.2911196E1,8.9204E4,-1.4957772E1,1.2308E4,8.3402E4,-3.3601894E1,1.516179E9,1.7177284E1,1.5331535E9,2.1645167E0,2.6309602E0,-2.3366932E1,-2.3586674E1,1.3101E4,1.5335933E9,8.68E4,-2.6123657E0,-5.184026E0,-2.998657E1,3.0632553E0,8.63061E0,-1.21828985E1,1.6844074E0,-3.0669289E1,-1.047149E1,1.7603594E1,1.6078693E1,-3.8902566E0,-3.2951145E1,-1.2964478E1,2.899913E-1,-2.6773758E1,2.3435419E0,-4.3565937E1,-6.665968E0,-1.551242E0,6.1385207E0,-6.073593E0,8.508378E0,2.00043E1,-1.230188E1,-1.0693942E0,2.183413E1,-6.9163723E0,-1.0770713E1,-4.5323725E0,2.4994895E0,-1.9749924E0,-1.7240541E1,3.00776E0,9.310698E0,-8.394015E0,-5.5449696E0,-2.3399769E1],"split_indices":[1,0,2,0,0,2,2,0,1,0,0,0,0,0,0,0,2,0,1,0,2,2,0,2,2,1,0,0,0,2,2,1,2,1,0,0,0,1,1,1,0,0,1,2,0,0,0,0,0,1,0,1,0,0,0,2,0,1,0,0,0,0,0,0,0,0,0,0,0,0,0,0,0,0,0,0,0,0,0,0,0,0,0,0,0,0,0,0,0,0,0,0,0,0,0,0,0],"split_type":[0,0,0,0,0,0,0,0,0,0,0,0,0,0,0,0,0,0,0,0,0,0,0,0,0,0,0,0,0,0,0,0,0,0,0,0,0,0,0,0,0,0,0,0,0,0,0,0,0,0,0,0,0,0,0,0,0,0,0,0,0,0,0,0,0,0,0,0,0,0,0,0,0,0,0,0,0,0,0,0,0,0,0,0,0,0,0,0,0,0,0,0,0,0,0,0,0],"sum_hessian":[1.1388E4,5.203E3,6.185E3,2.493E3,2.71E3,6.65E2,5.52E3,2.301E3,1.92E2,5.46E2,2.164E3,4.65E2,2E2,6.5E1,5.455E3,1.947E3,3.54E2,1.59E2,3.3E1,3.11E2,2.35E2,3.52E2,1.812E3,8E1,3.85E2,2.2E1,1.78E2,4E0,6.1E1,5.239E3,2.16E2,7.3E2,1.217E3,1.97E2,1.57E2,2E0,3.1E1,1.98E2,1.13E2,8.3E1,1.52E2,3.48E2,4E0,1.296E3,5.16E2,1.5E1,6.5E1,3.77E2,8E0,1.7E1,5E0,1.73E2,5E0,2E0,2E0,2.599E3,2.64E3,3.4E1,1.82E2,4.98E2,2.32E2,8E0,1.209E3,5E0,1.92E2,1.56E2,1E0,1.8E2,1.8E1,7.2E1,4.1E1,6.3E1,2E1,1.2E2,3.2E1,1E0,3E0,5.76E2,7.2E2,3.26E2,1.9E2,4.2E1,2.3E1,4.1E1,3.36E2,2E0,1.5E1,1.52E2,2.1E1,1.209E3,1.39E3,2.5E1,2.615E3,3.2E1,2E0,1.66E2,1.6E1],"tree_param":{"num_deleted":"0","num_feature":"3","num_nodes":"97","size_leaf_vector":"1"}},{"base_weights":[-4.30415E-2,-2.34816E1,2.5708258E-1,-1.7316006E1,-3.624056E1,9.722205E-3,3.7100456E1,2.2464464E1,-2.0124043E1,-3.26011E1,-5.5070095E1,-5.311257E1,3.9282632E-1,3.865775E1,-1.1720887E1,2.8549073E0,8.938937E0,6.8304076E0,-2.1412224E1,-4.5599356E0,-1.0072469E1,-1.5090569E0,-1.9221611E1,-2.2762592E1,-6.730399E1,2.3800257E1,-4.569605E-2,4.0050144E1,-9.448076E0,-8.348549E0,2.2452257E1,-1.5309384E1,-6.8877864E0,-4.606836E0,-3.929245E1,-5.624272E1,-3.1629166E1,6.4191394E0,2.7648338E1,-2.7881554E1,6.082848E-1,4.2302155E1,-9.372551E0,1.4286451E1,-5.4339755E-1,-6.263731E0,1.4412745E1,-1.170247E1,2.49647E0,-1.3944888E1,7.701233E-1,9.746972E0,-1.7718555E1,8.736411E0,4.9291716E0,-1.1960581E1,-6.0064025E0,-2.8909044E0,4.0582296E-1,9.766169E0,1.756406E1,-1.4563509E1,5.9599853E0],"categories":[],"categories_nodes":[],"categories_segments":[],"categories_sizes":[],"default_left":[1,0,0,0,0,0,0,0,0,0,0,0,0,0,0,0,0,0,0,0,0,0,0,0,0,0,0,0,0,0,0,0,0,0,0,0,0,0,0,0,0,0,0,0,0,0,0,0,0,0,0,0,0,0,0,0,0,0,0,0,0,0,0],"id":8,"left_children":[1,3,5,7,9,11,13,15,17,19,21,23,25,27,-1,-1,-1,29,31,-1,-1,-1,-1,33,35,37,39,41,-1,-1,43,45,-1,47,49,51,-1,-1,53,55,57,59,61,-1,-1,-1,-1,-1,-1,-1,-1,-1,-1,-1,-1,-1,-1,-1,-1,-1,-1,-1,-1],"loss_changes":[8.012168E4,1.07004375E4,1.0249108E5,1.1510871E4,1.3570039E3,2.2738634E5,1.0406773E4,3.8099414E2,3.3754219E3,1.8442188E2,2.3804434E3,3.2924734E4,1.13867195E5,8.489531E3,0E0,0E0,0E0,3.3319932E3,4.8880078E2,0E0,0E0,0E0,0E0,7.9220117E3,1.684364E4,1.2948828E3,1.982598E5,8.521398E3,0E0,0E0,2.529042E3,8.412977E3,0E0,6.5511816E3,4.333203E3,1.2925453E4,0E0,0E0,7.6083203E2,2.2756969E4,8.116878E4,9.179117E3,5.545908E3,0E0,0E0,0E0,0E0,0E0,0E0,0E0,0E0,0E0,0E0,0E0,0E0,0E0,0E0,0E0,0E0,0E0,0E0,0E0,0E0],"parents":[2147483647,0,0,1,1,2,2,3,3,4,4,5,5,6,6,7,7,8,8,9,9,10,10,11,11,12,12,13,13,17,17,18,18,23,23,24,24,25,25,26,26,27,27,30,30,31,31,33,33,34,34,35,35,38,38,39,39,40,40,41,41,42,42],"right_children":[2,4,6,8,10,12,14,16,18,20,22,24,26,28,-1,-1,-1,30,32,-1,-1,-1,-1,34,36,38,40,42,-1,-1,44,46,-1,48,50,52,-1,-1,54,56,58,60,62,-1,-1,-1,-1,-1,-1,-1,-1,-1,-1,-1,-1,-1,-1,-1,-1,-1,-1,-1,-1],"split_conditions":[-2.968818E1,1.5138153E9,8.956E4,-3.003215E1,1.5301126E9,-2.6911411E1,-2.691627E1,9.203E4,1.4958039E9,7.1825E4,7.1825E4,-2.7541775E1,-2.6468502E1,9.95E4,-1.1720887E1,2.8549073E0,8.938937E0,1.4900977E9,1.504282E9,-4.5599356E0,-1.0072469E1,-1.5090569E0,-1.9221611E1,1.5288346E9,8.837E4,1.5135695E9,-2.5435488E1,1.5335933E9,-9.448076E0,-8.348549E0,1.4920863E9,1.5028539E9,-6.8877864E0,8.8301E4,1.5337053E9,1.4967309E9,-3.1629166E1,6.4191394E0,1.5311323E9,8.3402E4,3.613E3,1.5314337E9,1.5347355E9,1.4286451E1,-5.4339755E-1,-6.263731E0,1.4412745E1,-1.170247E1,2.49647E0,-1.3944888E1,7.701233E-1,9.746972E0,-1.7718555E1,8.736411E0,4.9291716E0,-1.1960581E1,-6.0064025E0,-2.8909044E0,4.0582296E-1,9.766169E0,1.756406E1,-1.4563509E1,5.9599853E0],"split_indices":[2,1,0,2,1,2,2,0,1,0,0,2,2,0,0,0,0,1,1,0,0,0,0,1,0,1,2,1,0,0,1,1,0,0,1,1,0,0,1,0,0,1,1,0,0,0,0,0,0,0,0,0,0,0,0,0,0,0,0,0,0,0,0],"split_type":[0,0,0,0,0,0,0,0,0,0,0,0,0,0,0,0,0,0,0,0,0,0,0,0,0,0,0,0,0,0,0,0,0,0,0,0,0,0,0,0,0,0,0,0,0,0,0,0,0,0,0,0,0,0,0,0,0,0,0,0,0,0,0],"sum_hessian":[1.1388E4,1.43E2,1.1245E4,9.8E1,4.5E1,1.1171E4,7.4E1,6E0,9.2E1,4E1,5E0,7.9E1,1.1092E4,7.3E1,1E0,3E0,3E0,4E0,8.8E1,3E0,3.7E1,1E0,4E0,2.6E1,5.3E1,2.03E2,1.0889E4,7.2E1,1E0,1E0,3E0,2E1,6.8E1,1.3E1,1.3E1,4.3E1,1E1,1.29E2,7.4E1,2.49E2,1.064E4,6.9E1,3E0,1E0,2E0,1.9E1,1E0,3E0,1E1,1.1E1,2E0,1E0,4.2E1,6.4E1,1E1,9.7E1,1.52E2,7.2E2,9.92E3,4.5E1,2.4E1,1E0,2E0],"tree_param":{"num_deleted":"0","num_feature":"3","num_nodes":"63","size_leaf_vector":"1"}},{"base_weights":[-3.7302893E-2,-2.5080562E0,2.0412354E0,9.7756225E-1,-5.6793685E0,-6.9383607E0,3.1240773E0,7.409328E-1,8.446952E1,-1.1291399E1,-2.0887086E0,-1.4230888E0,-1.9690493E1,4.4079727E1,2.6280735E0,-5.9983373E0,2.634661E0,3.0858706E1,-3.883118E0,-1.5835034E1,-7.838797E0,1.2208813E1,-7.3063526E0,1.9531803E1,-5.816672E0,6.8815875E0,-2.299478E1,-3.3502216E1,1.4887612E1,3.2223606E0,-1.1734567E1,-1.9517308E0,-1.1976186E1,1.0594007E1,-2.3154314E0,-2.19738E1,3.7855532E0,2.3743137E1,-1.42022E1,-6.261288E-1,2.2314333E1,-5.024028E1,-3.7981725E0,-7.386986E0,2.994013E1,-3.9755218E0,-2.4749607E1,2.8789848E1,-1.9635593E1,-2.3830484E1,1.5219308E0,2.0236022E0,-1.8774712E1,2.3934593E0,1.5709561E1,1.5010096E1,-2.09072E1,-1.6676043E0,2.9816756E0,-2.9324083E0,-9.3735695E0,3.2318292E0,2.1837964E0,-1.8020313E1,-1.394867E-1,-3.216636E0,-9.090809E0,-5.003308E0,4.8559737E0,1.1337521E1,-6.3114634E0,-4.5452466E0,5.338842E0,4.2869794E-1,-8.277473E0,5.927554E0,1.0131924E1,-1.0939649E0,-1.919105E1,4.8192906E-1,-5.2890472E0,5.8963103E0,1.4136386E1,-8.190275E0,-3.1701082E-1,-2.9991531E0,1.4141798E1,1.7386139E1,-1.2995097E1,-7.879823E0,-3.9087114E0,8.5275984E-1,-2.464767E1,1.5332288E1,2.453536E0,-3.6234357E0,1.1173515E1,-8.291924E0,1.5755357E0],"categories":[],"categories_nodes":[],"categories_segments":[],"categories_sizes":[],"default_left":[0,0,1,0,1,0,0,0,0,0,0,0,0,0,0,0,0,0,0,0,0,0,0,0,0,0,0,0,0,0,0,0,0,0,0,0,0,0,0,0,0,0,0,0,0,0,0,0,0,0,0,0,0,0,0,0,0,0,0,0,0,0,0,0,0,0,0,0,0,0,0,0,0,0,0,0,0,0,0,0,0,0,0,0,0,0,0,0,0,0,0,0,0,0,0,0,0,0,0],"id":9,"left_children":[1,3,5,7,9,11,13,15,17,19,21,23,25,27,29,31,33,-1,-1,35,37,39,41,43,45,47,49,51,-1,53,55,57,59,61,63,65,67,69,71,73,75,77,79,-1,81,83,-1,85,87,89,-1,-1,-1,91,93,95,97,-1,-1,-1,-1,-1,-1,-1,-1,-1,-1,-1,-1,-1,-1,-1,-1,-1,-1,-1,-1,-1,-1,-1,-1,-1,-1,-1,-1,-1,-1,-1,-1,-1,-1,-1,-1,-1,-1,-1,-1,-1,-1],"loss_changes":[5.8493957E4,5.7530492E4,6.017114E4,4.893392E4,5.48876E4,4.681274E4,1.1203863E5,3.1589848E4,1.3873363E4,1.6551531E4,1.2414796E5,4.3016863E4,1.7806406E4,3.0058516E4,4.660768E4,1.3111797E4,7.614436E4,0E0,0E0,5.524754E4,1.2212417E5,5.7732156E4,1.834149E5,3.7963258E4,5.416871E4,1.3927049E4,4.3195938E3,6.274164E3,0E0,5.419984E4,5.354804E4,1.3994166E4,8.984703E3,3.6064062E2,1.2736014E5,3.2381312E4,2.8184133E4,6.496481E4,1.5598547E4,1.0956633E4,6.6250312E3,5.8621562E4,8.4353516E4,0E0,1.0737469E4,2.5706373E4,0E0,9.723642E3,2.2722059E4,4.2353594E3,0E0,0E0,0E0,1.8685708E5,8.6489266E4,3.4178938E4,2.867604E4,0E0,0E0,0E0,0E0,0E0,0E0,0E0,0E0,0E0,0E0,0E0,0E0,0E0,0E0,0E0,0E0,0E0,0E0,0E0,0E0,0E0,0E0,0E0,0E0,0E0,0E0,0E0,0E0,0E0,0E0,0E0,0E0,0E0,0E0,0E0,0E0,0E0,0E0,0E0,0E0,0E0,0E0],"parents":[2147483647,0,0,1,1,2,2,3,3,4,4,5,5,6,6,7,7,8,8,9,9,10,10,11,11,12,12,13,13,14,14,15,15,16,16,19,19,20,20,21,21,22,22,23,23,24,24,25,25,26,26,27,27,29,29,30,30,31,31,32,32,33,33,34,34,35,35,36,36,37,37,38,38,39,39,40,40,41,41,42,42,44,44,45,45,47,47,48,48,49,49,53,53,54,54,55,55,56,56],"right_children":[2,4,6,8,10,12,14,16,18,20,22,24,26,28,30,32,34,-1,-1,36,38,40,42,44,46,48,50,52,-1,54,56,58,60,62,64,66,68,70,72,74,76,78,80,-1,82,84,-1,86,88,90,-1,-1,-1,92,94,96,98,-1,-1,-1,-1,-1,-1,-1,-1,-1,-1,-1,-1,-1,-1,-1,-1,-1,-1,-1,-1,-1,-1,-1,-1,-1,-1,-1,-1,-1,-1,-1,-1,-1,-1,-1,-1,-1,-1,-1,-1,-1,-1],"split_conditions":[1.5138153E9,-2.3471945E1,-2.3680084E1,-2.3484964E1,-2.2929913E1,-2.4011288E1,-2.3665703E1,5.849E3,1.5112374E9,1.327E4,-2.2752071E1,8.023E4,1.145E4,9.32E3,3.7706E4,1.5115252E9,6.44E3,3.0858706E1,-3.883118E0,1.5070016E9,1.3473E4,-2.2828655E1,1.405E4,-2.5435488E1,-2.4718586E1,-2.371934E1,7.1825E4,5.125E3,1.4887612E1,2.8615E4,1.5220351E9,-2.3520481E1,-2.3502108E1,1.5127611E9,6.513E3,3.017E3,1.303E4,1.5069153E9,7.1825E4,2.224E4,-2.2827328E1,1.366E4,2.602E4,-7.386986E0,1.2308E4,-2.968818E1,-2.4749607E1,1.5192868E9,1.516179E9,1.530217E9,1.5219308E0,2.0236022E0,-1.8774712E1,2.7277E4,3.131E4,1.5178542E9,-1.5847734E1,-1.6676043E0,2.9816756E0,-2.9324083E0,-9.3735695E0,3.2318292E0,2.1837964E0,-1.8020313E1,-1.394867E-1,-3.216636E0,-9.090809E0,-5.003308E0,4.8559737E0,1.1337521E1,-6.3114634E0,-4.5452466E0,5.338842E0,4.2869794E-1,-8.277473E0,5.927554E0,1.0131924E1,-1.0939649E0,-1.919105E1,4.8192906E-1,-5.2890472E0,5.8963103E0,1.4136386E1,-8.190275E0,-3.1701082E-1,-2.9991531E0,1.4141798E1,1.7386139E1,-1.2995097E1,-7.879823E0,-3.9087114E0,8.5275984E-1,-2.464767E1,1.5332288E1,2.453536E0,-3.6234357E0,1.1173515E1,-8.291924E0,1.5755357E0],"split_indices":[1,2,2,2,2,2,2,0,1,0,2,0,0,0,0,1,0,0,0,1,0,2,0,2,2,2,0,0,0,0,1,2,2,1,0,0,0,1,0,0,2,0,0,0,0,2,0,1,1,1,0,0,0,0,0,1,2,0,0,0,0,0,0,0,0,0,0,0,0,0,0,0,0,0,0,0,0,0,0,0,0,0,0,0,0,0,0,0,0,0,0,0,0,0,0,0,0,0,0],"split_type":[0,0,0,0,0,0,0,0,0,0,0,0,0,0,0,0,0,0,0,0,0,0,0,0,0,0,0,0,0,0,0,0,0,0,0,0,0,0,0,0,0,0,0,0,0,0,0,0,0,0,0,0,0,0,0,0,0,0,0,0,0,0,0,0,0,0,0,0,0,0,0,0,0,0,0,0,0,0,0,0,0,0,0,0,0,0,0,0,0,0,0,0,0,0,0,0,0,0,0],"sum_hessian":[1.1388E4,5.203E3,6.185E3,2.479E3,2.724E3,6.65E2,5.52E3,2.473E3,6E0,1.062E3,1.662E3,4.65E2,2E2,6.5E1,5.455E3,5.42E2,1.931E3,5E0,1E0,4.57E2,6.05E2,4.44E2,1.218E3,8E1,3.85E2,2.2E1,1.78E2,4E0,6.1E1,5.239E3,2.16E2,3.24E2,2.18E2,7.4E2,1.191E3,3.48E2,1.09E2,1.01E2,5.04E2,1.96E2,2.48E2,9.1E1,1.127E3,1.5E1,6.5E1,3.77E2,8E0,1.2E1,1E1,1.73E2,5E0,2E0,2E0,4.914E3,3.25E2,5.5E1,1.61E2,2.49E2,7.5E1,1.97E2,2.1E1,7E2,4E1,3.6E1,1.155E3,1.49E2,1.99E2,4.1E1,6.8E1,7.7E1,2.4E1,4.9E2,1.4E1,1.83E2,1.3E1,2.05E2,4.3E1,2.1E1,7E1,8.11E2,3.16E2,4.2E1,2.3E1,4.1E1,3.36E2,4E0,8E0,2E0,8E0,1.4E2,3.3E1,4.889E3,2.5E1,5.6E1,2.69E2,2.5E1,3E1,1.28E2,3.3E1],"tree_param":{"num_deleted":"0","num_feature":"3","num_nodes":"99","size_leaf_vector":"1"}},{"base_weights":[-2.9855808E-2,-1.7625982E-1,2.4712868E1,3.5791567E-1,-6.947431E0,1.635997E1,1.5094567E1,-9.3485135E-1,8.90548E0,-2.1283611E1,3.3367627E0,2.1468758E1,-2.6385519E1,-8.421114E-2,-4.5177544E1,1.0930679E1,4.4256206E0,-1.4251777E1,-5.9043682E1,2.8492142E1,-1.054164E1,1.7756792E1,2.09976E1,-2.0852402E1,3.765818E0,-6.3502175E-1,2.2613739E1,1.1682601E1,-4.913496E1,1.0714504E1,4.3120575E1,9.513874E0,-7.519964E1,-9.462221E0,-5.3020893E1,-6.8341255E1,1.3722247E1,3.323017E1,-3.7450768E1,3.8527264E1,-1.5706041E1,-1.4868623E1,2.0413176E1,7.295481E-2,-2.5501171E1,-2.3468204E1,7.9316072E0,2.0012226E0,4.674801E0,-1.6104685E1,-4.878967E0,-9.408557E0,3.2511394E0,1.6803307E1,6.80178E0,-1.44875E1,3.2837908E0,-3.821026E1,-8.535605E0,-4.698013E0,1.3518536E1,-2.114476E0,-1.968339E1,-1.5516406E1,-2.2600716E1,1.7588778E1,8.371262E0,9.219108E0,-3.3226086E1,1.3464839E1,-2.1867466E1,-3.5827923E1,-1.5578176E0,6.2450275E0,2.3875947E0],"categories":[],"categories_nodes":[],"categories_segments":[],"categories_sizes":[],"default_left":[1,0,0,0,1,0,0,0,0,1,0,0,0,0,0,0,0,0,0,0,0,0,0,0,0,0,0,0,0,0,0,0,0,1,1,0,0,0,0,0,0,0,0,0,0,0,0,0,0,0,0,0,0,0,0,0,0,0,0,0,0,0,0,0,0,0,0,0,0,0,0,0,0,0,0],"id":10,"left_children":[1,3,5,7,9,11,-1,13,15,17,19,21,23,25,27,29,31,33,35,37,39,41,-1,-1,-1,43,45,47,49,51,53,55,57,59,61,63,-1,65,67,69,71,-1,73,-1,-1,-1,-1,-1,-1,-1,-1,-1,-1,-1,-1,-1,-1,-1,-1,-1,-1,-1,-1,-1,-1,-1,-1,-1,-1,-1,-1,-1,-1,-1,-1],"loss_changes":[4.126025E4,4.0957707E4,1.3505055E4,1.1598922E5,1.2214808E5,1.1922099E4,0E0,3.4314856E5,1.2462758E4,9.102933E4,1.6892362E5,7.2226465E3,1.0947199E4,1.1187219E5,3.9277375E4,6.1417812E3,1.7533661E5,5.3904547E4,5.5735047E4,5.4984062E4,7.96695E4,9.058836E3,0E0,0E0,0E0,6.472982E5,8.383921E4,1.306112E2,2.3192938E4,5.210617E3,3.1158496E2,3.4138492E4,5.9782984E4,8.924334E4,1.805961E4,1.9158906E3,0E0,2.0143234E4,6.3377945E4,2.4515344E4,3.0797578E5,0E0,5.5490234E1,0E0,0E0,0E0,0E0,0E0,0E0,0E0,0E0,0E0,0E0,0E0,0E0,0E0,0E0,0E0,0E0,0E0,0E0,0E0,0E0,0E0,0E0,0E0,0E0,0E0,0E0,0E0,0E0,0E0,0E0,0E0,0E0],"parents":[2147483647,0,0,1,1,2,2,3,3,4,4,5,5,7,7,8,8,9,9,10,10,11,11,12,12,13,13,14,14,15,15,16,16,17,17,18,18,19,19,20,20,21,21,25,25,26,26,27,27,28,28,29,29,30,30,31,31,32,32,33,33,34,34,35,35,37,37,38,38,39,39,40,40,42,42],"right_children":[2,4,6,8,10,12,-1,14,16,18,20,22,24,26,28,30,32,34,36,38,40,42,-1,-1,-1,44,46,48,50,52,54,56,58,60,62,64,-1,66,68,70,72,-1,74,-1,-1,-1,-1,-1,-1,-1,-1,-1,-1,-1,-1,-1,-1,-1,-1,-1,-1,-1,-1,-1,-1,-1,-1,-1,-1,-1,-1,-1,-1,-1,-1],"split_conditions":[-1.1829317E1,-2.1168505E1,-6.825533E0,-2.136757E1,-2.0502342E1,1.5254419E9,1.5094567E1,-2.2074064E1,-2.125334E1,-2.0534222E1,-1.9954557E1,1.5223578E9,5.828E4,-2.2358353E1,1.366E4,1.494E4,1.4075E4,1.5329684E9,1.521045E9,1.5337905E9,3.131E4,5.828E4,2.09976E1,-2.0852402E1,3.765818E0,-2.251225E1,1.393E4,1.4987569E9,1.5264224E9,1.4407E4,1.5126819E9,1.5093303E9,1.5260577E9,-2.0656391E1,-2.1168375E1,1.5023913E9,1.3722247E1,1.4781E4,-2.015825E1,1.5335933E9,-1.9810118E1,-1.4868623E1,1.5138918E9,7.295481E-2,-2.5501171E1,-2.3468204E1,7.9316072E0,2.0012226E0,4.674801E0,-1.6104685E1,-4.878967E0,-9.408557E0,3.2511394E0,1.6803307E1,6.80178E0,-1.44875E1,3.2837908E0,-3.821026E1,-8.535605E0,-4.698013E0,1.3518536E1,-2.114476E0,-1.968339E1,-1.5516406E1,-2.2600716E1,1.7588778E1,8.371262E0,9.219108E0,-3.3226086E1,1.3464839E1,-2.1867466E1,-3.5827923E1,-1.5578176E0,6.2450275E0,2.3875947E0],"split_indices":[2,2,2,2,2,1,0,2,2,2,2,1,0,2,0,0,0,1,1,1,0,0,0,0,0,2,0,1,1,0,1,1,1,2,2,1,0,0,2,1,2,0,1,0,0,0,0,0,0,0,0,0,0,0,0,0,0,0,0,0,0,0,0,0,0,0,0,0,0,0,0,0,0,0,0],"split_type":[0,0,0,0,0,0,0,0,0,0,0,0,0,0,0,0,0,0,0,0,0,0,0,0,0,0,0,0,0,0,0,0,0,0,0,0,0,0,0,0,0,0,0,0,0,0,0,0,0,0,0,0,0,0,0,0,0,0,0,0,0,0,0,0,0,0,0,0,0,0,0,0,0,0,0],"sum_hessian":[1.1388E4,1.1322E4,6.6E1,1.0495E4,8.27E2,5.1E1,1.5E1,9.117E3,1.378E3,3.45E2,4.82E2,4.6E1,5E0,8.946E3,1.71E2,9.48E2,4.3E2,2.92E2,5.3E1,1.71E2,3.11E2,4.4E1,2E0,2E0,3E0,8.735E3,2.11E2,1.1E1,1.6E2,9.43E2,5E0,4.05E2,2.5E1,2.61E2,3.1E1,4.9E1,4E0,1.6E2,1.1E1,2.9E1,2.82E2,1E0,4.3E1,8.646E3,8.9E1,7E0,2.04E2,6E0,5E0,1.4E2,2E1,2E0,9.41E2,2E0,3E0,9E0,3.96E2,1.1E1,1.4E1,2.35E2,2.6E1,7E0,2.4E1,1.7E1,3.2E1,2.6E1,1.34E2,6E0,5E0,2.8E1,1E0,2.5E1,2.57E2,4.1E1,2E0],"tree_param":{"num_deleted":"0","num_feature":"3","num_nodes":"75","size_leaf_vector":"1"}},{"base_weights":[-3.5316825E-2,-1.5840226E0,1.9215009E0,1.7976743E-1,-1.38909445E1,3.0344852E1,1.1138247E0,-2.9013082E-1,2.8121437E1,-7.863884E0,-2.8897669E1,1.7193552E1,5.4919327E1,1.011604E1,-7.9162294E-1,1.6426241E0,-4.11445E0,4.2218807E1,-7.380335E0,-1.896014E0,-1.808549E1,-3.822117E1,-8.978208E0,-2.0824068E1,1.8908066E1,-2.2020294E1,5.874323E1,-3.354914E1,1.0964938E1,-2.808752E1,3.7055838E-1,7.214152E-1,3.7111336E1,-9.550317E0,3.1179192E0,1.730247E1,5.1201965E1,8.330505E-2,-2.0135166E1,-1.242108E1,2.4951174E1,-1.6868626E1,-1.1569847E1,-4.225194E1,-2.0017881E1,5.3932175E1,-2.0818626E1,-2.0375595E0,2.0481222E1,6.3629336E0,-1.6272066E1,7.274665E1,3.690145E1,-1.6449928E-1,1.6549612E1,-4.7529186E1,-2.1062487E1,-1.365857E1,1.8196771E0,-6.8323356E-1,1.6966707E0,1.5695414E1,1.1820637E0,-3.2274687E0,9.551099E0,6.023805E-1,2.4432465E1,8.620242E0,-9.824947E0,-8.212791E0,1.6036892E1,-7.090414E0,5.2412896E0,-7.6599436E0,-2.7343346E-2,-1.8910321E0,1.0087496E1,-5.2170067E0,1.3033401E1,-1.1690333E1,-2.0340425E1,2.2046774E1,-1.1169031E1,2.7860851E1,-1.4501953E-1,-1.1438431E1,-2.5282335E0,6.885497E0,1.841019E0,1.56751E1,2.4518929E1,4.6165166E0,1.7062702E1,6.960582E-1,-5.762649E0,5.156753E0,-2.3281967E1,-6.781051E0,-2.645357E1,-1.00632925E1,3.01011E0,-2.914395E0,-1.4443545E1,1.0442111E0,-9.65076E-1],"categories":[],"categories_nodes":[],"categories_segments":[],"categories_sizes":[],"default_left":[1,1,0,1,0,0,0,0,0,0,0,0,0,0,0,0,1,0,0,0,0,0,0,0,0,0,0,0,0,0,0,0,0,0,0,0,0,0,0,0,0,0,0,0,0,0,0,0,0,0,0,0,0,0,0,0,0,0,0,0,0,0,0,0,0,0,0,0,0,0,0,0,0,0,0,0,0,0,0,0,0,0,0,0,0,0,0,0,0,0,0,0,0,0,0,0,0,0,0,0,0,0,0,0,0],"id":11,"left_children":[1,3,5,7,9,11,13,15,17,19,21,23,25,27,29,31,33,35,37,39,41,43,45,-1,47,49,51,-1,53,55,57,59,61,63,65,67,69,71,-1,73,75,77,-1,79,81,83,85,-1,87,-1,-1,89,91,93,95,97,99,101,103,-1,-1,-1,-1,-1,-1,-1,-1,-1,-1,-1,-1,-1,-1,-1,-1,-1,-1,-1,-1,-1,-1,-1,-1,-1,-1,-1,-1,-1,-1,-1,-1,-1,-1,-1,-1,-1,-1,-1,-1,-1,-1,-1,-1,-1,-1],"loss_changes":[3.4517805E4,1.380145E5,1.1548513E5,7.303578E4,7.185858E4,4.397864E4,8.395602E4,4.0445496E4,4.63559E4,3.4736402E4,4.2000797E4,1.4973467E4,1.5415609E4,8.973591E4,1.28170445E5,1.1874355E5,7.224996E4,1.3886695E4,1.2043666E4,1.0231711E5,4.5831016E3,1.0527078E4,5.6244305E4,0E0,3.8182402E3,5.329032E3,1.1385078E4,0E0,5.283386E4,2.1534344E4,7.8823445E4,5.245287E4,4.620082E4,5.278432E4,6.843054E4,1.181248E4,9.966203E3,1.0722941E4,0E0,4.2032117E4,2.7863812E4,7.0449336E3,0E0,7.930422E3,5.1019977E4,2.5470457E4,1.3191221E4,0E0,2.9067422E3,0E0,0E0,7.008594E2,7.71891E3,1.3530574E4,3.5417938E4,4.157504E4,4.807742E4,4.8904758E4,2.9409043E4,0E0,0E0,0E0,0E0,0E0,0E0,0E0,0E0,0E0,0E0,0E0,0E0,0E0,0E0,0E0,0E0,0E0,0E0,0E0,0E0,0E0,0E0,0E0,0E0,0E0,0E0,0E0,0E0,0E0,0E0,0E0,0E0,0E0,0E0,0E0,0E0,0E0,0E0,0E0,0E0,0E0,0E0,0E0,0E0,0E0,0E0],"parents":[2147483647,0,0,1,1,2,2,3,3,4,4,5,5,6,6,7,7,8,8,9,9,10,10,11,11,12,12,13,13,14,14,15,15,16,16,17,17,18,18,19,19,20,20,21,21,22,22,24,24,25,25,26,26,28,28,29,29,30,30,31,31,32,32,33,33,34,34,35,35,36,36,37,37,39,39,40,40,41,41,43,43,44,44,45,45,46,46,48,48,51,51,52,52,53,53,54,54,55,55,56,56,57,57,58,58],"right_children":[2,4,6,8,10,12,14,16,18,20,22,24,26,28,30,32,34,36,38,40,42,44,46,-1,48,50,52,-1,54,56,58,60,62,64,66,68,70,72,-1,74,76,78,-1,80,82,84,86,-1,88,-1,-1,90,92,94,96,98,100,102,104,-1,-1,-1,-1,-1,-1,-1,-1,-1,-1,-1,-1,-1,-1,-1,-1,-1,-1,-1,-1,-1,-1,-1,-1,-1,-1,-1,-1,-1,-1,-1,-1,-1,-1,-1,-1,-1,-1,-1,-1,-1,-1,-1,-1,-1,-1],"split_conditions":[-2.3011335E1,-2.3419754E1,-2.2931255E1,-2.3460165E1,1.5211953E9,2.224E4,1.3232E4,-2.3609787E1,8.673E3,-2.3141554E1,1.5290132E9,1.303E4,1.5041043E9,1.2701E4,1.405E4,-2.3625483E1,-2.3502716E1,5.503E3,1.528921E9,1.3324E4,1.517198E9,-2.3141554E1,1.5299674E9,-2.0824068E1,1.5035034E9,1.503657E9,1.5166674E9,-3.354914E1,1.3101E4,1.5057627E9,-2.2874598E1,-2.3651115E1,6.763E3,7.1825E4,1.8025E4,3.017E3,1.4961531E9,1.1701E4,-2.0135166E1,1.503657E9,1.4920863E9,1.5143758E9,-1.1569847E1,1.5281638E9,1.303E4,1.327E4,1.5329684E9,-2.0375595E0,1.5284049E9,6.3629336E0,-1.6272066E1,1.5155502E9,1.5203717E9,-2.2911196E1,1.5353294E9,1.393E4,1.393E4,1.5202217E9,-2.1168505E1,-6.8323356E-1,1.6966707E0,1.5695414E1,1.1820637E0,-3.2274687E0,9.551099E0,6.023805E-1,2.4432465E1,8.620242E0,-9.824947E0,-8.212791E0,1.6036892E1,-7.090414E0,5.2412896E0,-7.6599436E0,-2.7343346E-2,-1.8910321E0,1.0087496E1,-5.2170067E0,1.3033401E1,-1.1690333E1,-2.0340425E1,2.2046774E1,-1.1169031E1,2.7860851E1,-1.4501953E-1,-1.1438431E1,-2.5282335E0,6.885497E0,1.841019E0,1.56751E1,2.4518929E1,4.6165166E0,1.7062702E1,6.960582E-1,-5.762649E0,5.156753E0,-2.3281967E1,-6.781051E0,-2.645357E1,-1.00632925E1,3.01011E0,-2.914395E0,-1.4443545E1,1.0442111E0,-9.65076E-1],"split_indices":[2,2,2,2,1,0,0,2,0,2,1,0,1,0,0,2,2,0,1,0,1,2,1,0,1,1,1,0,0,1,2,2,0,0,0,0,1,0,0,1,1,1,0,1,0,0,1,0,1,0,0,1,1,2,1,0,0,1,2,0,0,0,0,0,0,0,0,0,0,0,0,0,0,0,0,0,0,0,0,0,0,0,0,0,0,0,0,0,0,0,0,0,0,0,0,0,0,0,0,0,0,0,0,0,0],"split_type":[0,0,0,0,0,0,0,0,0,0,0,0,0,0,0,0,0,0,0,0,0,0,0,0,0,0,0,0,0,0,0,0,0,0,0,0,0,0,0,0,0,0,0,0,0,0,0,0,0,0,0,0,0,0,0,0,0,0,0,0,0,0,0,0,0,0,0,0,0,0,0,0,0,0,0,0,0,0,0,0,0,0,0,0,0,0,0,0,0,0,0,0,0,0,0,0,0,0,0,0,0,0,0,0,0],"sum_hessian":[1.1388E4,6.357E3,5.031E3,5.561E3,7.96E2,1.38E2,4.893E3,5.47E3,9.1E1,5.69E2,2.27E2,9.1E1,4.7E1,8.54E2,4.039E3,3.634E3,1.836E3,6.5E1,2.6E1,3.6E2,2.09E2,1.54E2,7.3E1,1E0,9E1,2E0,4.5E1,5E0,8.49E2,1.64E2,3.875E3,3.543E3,9.1E1,1.048E3,7.88E2,1.8E1,4.7E1,2.4E1,2E0,2.59E2,1.01E2,1.99E2,1E1,1.25E2,2.9E1,1.1E1,6.2E1,5E0,8.5E1,1E0,1E0,2.6E1,1.9E1,2.84E2,5.65E2,4.2E1,1.22E2,3.62E2,3.513E3,2.204E3,1.339E3,6.2E1,2.9E1,1.019E3,2.9E1,7.78E2,1E1,1.5E1,3E0,1E0,4.6E1,1E1,1.4E1,1.25E2,1.34E2,2.2E1,7.9E1,1.98E2,1E0,1.13E2,1.2E1,4E0,2.5E1,6E0,5E0,2.5E1,3.7E1,7.2E1,1.3E1,1E1,1.6E1,1E1,9E0,2.52E2,3.2E1,5.62E2,3E0,2.7E1,1.5E1,8.7E1,3.5E1,3.26E2,3.6E1,2.642E3,8.71E2],"tree_param":{"num_deleted":"0","num_feature":"3","num_nodes":"105","size_leaf_vector":"1"}},{"base_weights":[-2.939636E-2,-1.1882708E1,1.7276561E-1,-1.9059494E1,2.181773E1,5.1897895E-2,3.013069E1,-1.474157E1,-6.2419445E1,-1.2496292E1,3.1669144E1,-4.0621124E1,2.0192418E-1,3.876359E1,3.159914E0,-1.2778196E1,-1.5486794E1,-1.2892884E1,-2.4354288E1,-1.9052511E1,1.2772674E1,-1.3919378E1,-1.4635674E1,1.7569115E1,-1.22774206E-1,9.492353E0,1.4003515E1,-3.596325E1,2.0196886E1,-4.0027432E0,-1.4857968E1,-3.0582657E1,8.0155647E-1,-2.9911364E1,2.1900072E1,4.698347E0,2.0273037E1,-1.835621E1,3.0473042E-1,-5.0740128E0,-1.9294645E1,1.2064567E1,-3.8608277E0,-2.161098E0,1.23633E1,-3.8354337E0,-6.6973357E0,-1.2189248E1,-6.572342E-2,8.397388E0,-1.1836541E1,6.7400737E0,4.8634725E0,-7.8329425E0,-3.980964E0,4.9079247E0,-3.5132457E-2,-9.82366E0,7.5403543E0,-6.8838596E0,4.9534454E0],"categories":[],"categories_nodes":[],"categories_segments":[],"categories_sizes":[],"default_left":[0,0,0,0,0,0,0,0,0,0,0,0,0,0,0,0,0,0,0,0,0,0,0,0,0,0,0,0,0,0,0,0,0,0,0,0,0,0,0,0,0,0,0,0,0,0,0,0,0,0,0,0,0,0,0,0,0,0,0,0,0],"id":12,"left_children":[1,3,5,7,9,11,13,15,17,-1,19,21,23,25,27,29,-1,-1,-1,31,-1,33,-1,35,37,-1,-1,39,41,43,45,47,-1,49,-1,-1,51,53,55,57,-1,-1,59,-1,-1,-1,-1,-1,-1,-1,-1,-1,-1,-1,-1,-1,-1,-1,-1,-1,-1],"loss_changes":[2.7293387E4,4.661125E4,4.0549406E4,2.8661383E4,2.2578992E4,6.807626E4,1.0355133E4,9.840006E3,1.6181055E3,0E0,1.7406938E4,8.259148E3,6.2680734E4,4.3970703E2,8.724829E3,2.4774102E3,0E0,0E0,0E0,1.584623E3,0E0,1.7473725E4,0E0,7.349336E2,8.5063305E4,0E0,0E0,3.1767773E3,4.489622E3,4.349181E3,1.4482832E3,1.211492E3,0E0,6.630499E3,0E0,0E0,3.5751172E2,9.512867E3,7.221844E4,3.3307905E3,0E0,0E0,2.3229414E3,0E0,0E0,0E0,0E0,0E0,0E0,0E0,0E0,0E0,0E0,0E0,0E0,0E0,0E0,0E0,0E0,0E0,0E0],"parents":[2147483647,0,0,1,1,2,2,3,3,4,4,5,5,6,6,7,7,8,8,10,10,11,11,12,12,13,13,14,14,15,15,19,19,21,21,23,23,24,24,27,27,28,28,29,29,30,30,31,31,33,33,36,36,37,37,38,38,39,39,42,42],"right_children":[2,4,6,8,10,12,14,16,18,-1,20,22,24,26,28,30,-1,-1,-1,32,-1,34,-1,36,38,-1,-1,40,42,44,46,48,-1,50,-1,-1,52,54,56,58,-1,-1,60,-1,-1,-1,-1,-1,-1,-1,-1,-1,-1,-1,-1,-1,-1,-1,-1,-1,-1],"split_conditions":[-2.7000868E1,1.5324015E9,8.956E4,-2.7541775E1,-2.968818E1,-2.6911411E1,1.5221814E9,1.5301126E9,8.8301E4,-1.2496292E1,8.9041E4,1.5085001E9,-2.6468502E1,1.5148593E9,1.5265882E9,1.504282E9,-1.5486794E1,-1.2892884E1,-2.4354288E1,1.5337053E9,1.2772674E1,1.5083273E9,-1.4635674E1,1.5125087E9,-2.5435488E1,9.492353E0,1.4003515E1,1.5246464E9,1.5277339E9,1.5028539E9,1.5254419E9,8.8301E4,8.0155647E-1,1.4967309E9,2.1900072E1,4.698347E0,1.5240893E9,8.3402E4,-2.4011288E1,1.52333E9,-1.9294645E1,1.2064567E1,1.5347355E9,-2.161098E0,1.23633E1,-3.8354337E0,-6.6973357E0,-1.2189248E1,-6.572342E-2,8.397388E0,-1.1836541E1,6.7400737E0,4.8634725E0,-7.8329425E0,-3.980964E0,4.9079247E0,-3.5132457E-2,-9.82366E0,7.5403543E0,-6.8838596E0,4.9534454E0],"split_indices":[2,1,0,2,2,2,1,1,0,0,0,1,2,1,1,1,0,0,0,1,0,1,0,1,2,0,0,1,1,1,1,0,0,1,0,0,1,0,2,1,0,0,1,0,0,0,0,0,0,0,0,0,0,0,0,0,0,0,0,0,0],"split_type":[0,0,0,0,0,0,0,0,0,0,0,0,0,0,0,0,0,0,0,0,0,0,0,0,0,0,0,0,0,0,0,0,0,0,0,0,0,0,0,0,0,0,0,0,0,0,0,0,0,0,0,0,0,0,0,0,0,0,0,0,0],"sum_hessian":[1.1388E4,1.9E2,1.1198E4,1.57E2,3.3E1,1.1154E4,4.4E1,1.44E2,1.3E1,4E0,2.9E1,4E1,1.1114E4,3.3E1,1.1E1,1.38E2,6E0,8E0,5E0,5E0,2.4E1,1E1,3E1,2.03E2,1.0911E4,2E1,1.3E1,3E0,8E0,2.7E1,1.11E2,3E0,2E0,9E0,1E0,1.23E2,8E1,2.49E2,1.0662E4,2E0,1E0,4E0,4E0,2.6E1,1E0,8.9E1,2.2E1,2E0,1E0,1E0,8E0,4.9E1,3.1E1,9.7E1,1.52E2,2.72E2,1.039E4,1E0,1E0,2E0,2E0],"tree_param":{"num_deleted":"0","num_feature":"3","num_nodes":"61","size_leaf_vector":"1"}},{"base_weights":[-2.4006132E-2,-1.334648E-1,1.8474867E1,-1.0058105E0,1.9203081E0,1.2388233E1,1.1130524E1,-6.308356E-1,-1.0090105E1,3.3305714E0,-1.3130733E0,1.6321125E1,-2.0484129E1,-1.7196845E0,1.9284033E0,-3.454672E1,1.6139351E0,-5.007535E0,3.974552E0,-2.003695E1,2.092779E0,1.326915E1,1.6998117E1,-1.6481882E1,3.1435525E0,-1.4291476E0,-9.28813E1,3.8929765E0,-1.8625393E1,5.984633E0,-4.3303253E1,3.6290234E1,-7.064523E0,1.0210733E1,-1.3697582E1,2.814476E1,3.35992E0,-3.088737E1,-4.0373125E0,6.2017055E0,-3.1863756E0,-1.2488298E1,4.6388664E0,2.2205506E-1,-1.1799177E0,-3.233733E1,3.788428E0,3.0526667E0,3.3809775E-1,-1.6549425E1,2.0772612E0,5.1134033E0,-1.760515E1,-1.4588195E1,-2.1919763E0,-1.9645786E1,1.20818E1,-2.3288778E1,2.0115283E-1,-6.5394883E0,7.1402254E0,1.0003338E1,-5.6514125E0,1.5988463E1,8.6630803E-1,-6.2849536E0,1.258845E0,-7.7198515E0,-2.4924595E1,-9.090448E0,2.4927073E0,7.19311E-1,1.2330307E1,1.6465225E0,-2.972893E0],"categories":[],"categories_nodes":[],"categories_segments":[],"categories_sizes":[],"default_left":[1,0,0,1,0,0,0,1,0,0,0,0,0,1,0,0,0,0,0,0,0,0,0,0,0,0,0,0,0,0,0,0,0,0,0,0,0,0,0,0,1,0,0,0,0,0,0,0,0,0,0,0,0,0,0,0,0,0,0,0,0,0,0,0,0,0,0,0,0,0,0,0,0,0,0],"id":13,"left_children":[1,3,5,7,9,11,-1,13,15,17,19,21,23,25,27,29,31,33,35,37,39,41,-1,-1,-1,43,45,47,49,51,53,55,57,59,61,63,65,67,69,71,73,-1,-1,-1,-1,-1,-1,-1,-1,-1,-1,-1,-1,-1,-1,-1,-1,-1,-1,-1,-1,-1,-1,-1,-1,-1,-1,-1,-1,-1,-1,-1,-1,-1,-1],"loss_changes":[2.3063621E4,2.0288219E4,7.1365E3,2.7067562E4,1.539866E4,7.0570635E3,0E0,2.1276404E4,9.022173E4,1.2643783E4,6.5470723E4,5.034543E3,6.9766787E3,1.4172528E5,9.209725E4,3.64604E4,6.4656848E4,2.2489684E4,3.2335605E4,2.7304531E4,1.8869812E4,6.062998E3,0E0,0E0,0E0,2.9008793E4,2.8104297E4,3.6151133E4,1.8616153E5,1.4589733E4,1.5743172E4,2.0065914E4,9.393318E4,2.7489016E4,2.6744451E4,3.4147875E4,4.338772E4,2.315171E4,2.1329094E4,6.4819664E4,2.227541E4,0E0,0E0,0E0,0E0,0E0,0E0,0E0,0E0,0E0,0E0,0E0,0E0,0E0,0E0,0E0,0E0,0E0,0E0,0E0,0E0,0E0,0E0,0E0,0E0,0E0,0E0,0E0,0E0,0E0,0E0,0E0,0E0,0E0,0E0],"parents":[2147483647,0,0,1,1,2,2,3,3,4,4,5,5,7,7,8,8,9,9,10,10,11,11,12,12,13,13,14,14,15,15,16,16,17,17,18,18,19,19,20,20,21,21,25,25,26,26,27,27,28,28,29,29,30,30,31,31,32,32,33,33,34,34,35,35,36,36,37,37,38,38,39,39,40,40],"right_children":[2,4,6,8,10,12,-1,14,16,18,20,22,24,26,28,30,32,34,36,38,40,42,-1,-1,-1,44,46,48,50,52,54,56,58,60,62,64,66,68,70,72,74,-1,-1,-1,-1,-1,-1,-1,-1,-1,-1,-1,-1,-1,-1,-1,-1,-1,-1,-1,-1,-1,-1,-1,-1,-1,-1,-1,-1,-1,-1,-1,-1,-1,-1],"split_conditions":[-1.1829317E1,1.5247278E9,-6.825533E0,-2.1168375E1,1.485E4,1.5254419E9,1.1130524E1,-2.2874598E1,-2.0502342E1,3.613E3,2.121E4,1.5223578E9,5.828E4,-2.2900814E1,2.602E4,1.4085E4,3.131E4,2.31E3,4.104E3,-2.2136517E1,3.559E4,5.828E4,1.6998117E1,-1.6481882E1,3.1435525E0,9.02E3,1.5216355E9,-2.2752071E1,-2.2358353E1,1.524169E9,3.131E4,1.4900977E9,3.157E4,-2.3569086E1,-2.3552513E1,-2.3532448E1,4.557E3,-2.228445E1,1.5308289E9,3.557E4,-2.5090807E1,-1.2488298E1,4.6388664E0,2.2205506E-1,-1.1799177E0,-3.233733E1,3.788428E0,3.0526667E0,3.3809775E-1,-1.6549425E1,2.0772612E0,5.1134033E0,-1.760515E1,-1.4588195E1,-2.1919763E0,-1.9645786E1,1.20818E1,-2.3288778E1,2.0115283E-1,-6.5394883E0,7.1402254E0,1.0003338E1,-5.6514125E0,1.5988463E1,8.6630803E-1,-6.2849536E0,1.258845E0,-7.7198515E0,-2.4924595E1,-9.090448E0,2.4927073E0,7.19311E-1,1.2330307E1,1.6465225E0,-2.972893E0],"split_indices":[2,1,2,2,0,1,0,2,2,0,0,1,0,2,0,0,0,0,0,2,0,0,0,0,0,0,1,2,2,1,0,1,0,2,2,2,0,2,1,0,2,0,0,0,0,0,0,0,0,0,0,0,0,0,0,0,0,0,0,0,0,0,0,0,0,0,0,0,0,0,0,0,0,0,0],"split_type":[0,0,0,0,0,0,0,0,0,0,0,0,0,0,0,0,0,0,0,0,0,0,0,0,0,0,0,0,0,0,0,0,0,0,0,0,0,0,0,0,0,0,0,0,0,0,0,0,0,0,0,0,0,0,0,0,0,0,0,0,0,0,0,0,0,0,0,0,0,0,0,0,0,0,0],"sum_hessian":[1.1388E4,1.1322E4,6.6E1,7.947E3,3.375E3,5.1E1,1.5E1,7.633E3,3.14E2,2.35E3,1.025E3,4.6E1,5E0,5.355E3,2.278E3,1.01E2,2.13E2,1.68E2,2.182E3,1.57E2,8.68E2,4.4E1,2E0,2E0,3E0,5.339E3,1.6E1,2.08E3,1.98E2,1.8E1,8.3E1,4.2E1,1.71E2,6.1E1,1.07E2,5.3E1,2.129E3,9.3E1,6.4E1,4.88E2,3.8E2,1E0,4.3E1,2.861E3,2.478E3,1.4E1,2E0,6.35E2,1.445E3,8.1E1,1.17E2,1.6E1,2E0,7.2E1,1.1E1,1E0,4.1E1,1.6E1,1.55E2,1.8E1,4.3E1,1E1,9.7E1,2.6E1,2.7E1,7E1,2.059E3,8.6E1,7E0,2E1,4.4E1,4.41E2,4.7E1,1.66E2,2.14E2],"tree_param":{"num_deleted":"0","num_feature":"3","num_nodes":"75","size_leaf_vector":"1"}},{"base_weights":[-2.5966126E-2,-5.0188665E0,2.644075E-1,1.4101787E1,-7.145786E0,2.7271264E0,-5.5927914E-1,1.5158635E1,-7.7134256E0,-7.937817E0,2.0477411E1,1.3744364E0,1.9987617E1,-2.9513062E1,-2.6191258E-1,2.3370895E1,1.0986453E1,6.9866133E0,-8.905827E0,4.5981536E0,8.622747E0,2.349814E0,-1.1720751E1,2.2790213E1,-2.9218786E1,9.733126E1,-4.2649616E1,-2.7116492E0,1.1767268E0,-6.3849373E0,2.6841272E1,1.5088425E1,-1.4620793E1,-1.2279755E1,6.1868717E1,-9.932613E0,4.655347E0,-1.6032143E0,4.488E0,4.8620525E-1,3.01152E1,4.382909E0,-1.0518782E1,1.4784327E1,3.489155E1,-5.240068E1,2.3466331E1,9.2200077E-1,-9.924825E0,2.235497E1,5.7497925E-1,8.58425E0,-7.606247E-1,-7.146304E0,6.731765E0,9.300739E0,-5.153513E0,-9.711717E0,2.3308622E1,-2.0654593E0,-4.2604866E0,-6.358128E0,9.077831E0,2.1022677E0,-2.057093E0,1.8266481E0,7.1943045E-1,4.7645974E0,-1.7419922E1,6.6093683E0,1.3011628E1,-1.9610436E0,-2.0807714E1,2.6613763E-2,1.005614E1,-1.2083157E1,-2.0199068E0,3.8092642E0,1.2119792E1,-2.532968E1,2.0375592E-1],"categories":[],"categories_nodes":[],"categories_segments":[],"categories_sizes":[],"default_left":[0,0,0,0,0,0,0,0,0,0,0,0,0,0,1,0,0,0,0,0,0,0,0,0,0,0,0,1,0,0,0,0,0,0,0,0,0,0,0,0,0,0,0,0,0,0,0,1,0,0,0,0,0,0,0,0,0,0,0,0,0,0,0,0,0,0,0,0,0,0,0,0,0,0,0,0,0,0,0,0,0],"id":14,"left_children":[1,3,5,7,9,11,13,15,-1,17,19,21,23,25,27,29,31,33,35,-1,-1,37,-1,39,41,43,45,47,49,-1,51,53,-1,55,57,59,61,63,65,67,69,-1,-1,-1,-1,71,-1,73,75,77,79,-1,-1,-1,-1,-1,-1,-1,-1,-1,-1,-1,-1,-1,-1,-1,-1,-1,-1,-1,-1,-1,-1,-1,-1,-1,-1,-1,-1,-1,-1],"loss_changes":[1.6513174E4,2.5558984E4,2.1836393E4,3.0405723E3,1.2501992E4,6.296568E4,6.9448234E4,1.8675449E3,0E0,7.993617E3,2.4053174E2,9.882962E4,2.7695414E4,1.4078753E5,2.8148152E4,3.6705908E3,1.1269478E4,3.671061E4,7.231246E3,0E0,0E0,2.067309E4,0E0,3.0373398E4,3.3296367E3,1.5619453E3,9.24952E4,7.746016E4,6.4114727E4,0E0,1.0621035E3,1.2261144E4,0E0,6.045174E3,1.5938906E4,6.1474414E3,2.5129496E4,3.8908312E4,5.2948125E3,4.3290992E4,1.4048023E4,0E0,0E0,0E0,0E0,5.3990953E4,0E0,5.340129E4,9.563878E4,2.3709414E4,4.341014E4,0E0,0E0,0E0,0E0,0E0,0E0,0E0,0E0,0E0,0E0,0E0,0E0,0E0,0E0,0E0,0E0,0E0,0E0,0E0,0E0,0E0,0E0,0E0,0E0,0E0,0E0,0E0,0E0,0E0,0E0],"parents":[2147483647,0,0,1,1,2,2,3,3,4,4,5,5,6,6,7,7,9,9,10,10,11,11,12,12,13,13,14,14,15,15,16,16,17,17,18,18,21,21,23,23,24,24,25,25,26,26,27,27,28,28,30,30,31,31,33,33,34,34,35,35,36,36,37,37,38,38,39,39,40,40,45,45,47,47,48,48,49,49,50,50],"right_children":[2,4,6,8,10,12,14,16,-1,18,20,22,24,26,28,30,32,34,36,-1,-1,38,-1,40,42,44,46,48,50,-1,52,54,-1,56,58,60,62,64,66,68,70,-1,-1,-1,-1,72,-1,74,76,78,80,-1,-1,-1,-1,-1,-1,-1,-1,-1,-1,-1,-1,-1,-1,-1,-1,-1,-1,-1,-1,-1,-1,-1,-1,-1,-1,-1,-1,-1,-1],"split_conditions":[3.47E3,1.529E3,8.71E3,-2.3532448E1,-2.3460165E1,6.513E3,9.015E3,-2.3549276E1,-7.7134256E0,-2.3552513E1,1.5125791E9,6.44E3,-2.3419754E1,1.5070016E9,-2.3011335E1,1.5076901E9,1.5252177E9,3.32E3,1.5311323E9,4.5981536E0,8.622747E0,5.849E3,-1.1720751E1,1.5136326E9,1.4943854E9,1.4914275E9,-2.3518456E1,-2.3656677E1,-2.2931255E1,-6.3849373E0,1.5353294E9,-2.354479E1,-1.4620793E1,-2.3580046E1,1.5112374E9,2.336E3,-2.3484964E1,4.104E3,1.5180966E9,-2.354479E1,-2.3523996E1,4.382909E0,-1.0518782E1,1.4784327E1,3.489155E1,1.5155502E9,2.3466331E1,-2.3660332E1,9.72E3,2.224E4,1.2701E4,8.58425E0,-7.606247E-1,-7.146304E0,6.731765E0,9.300739E0,-5.153513E0,-9.711717E0,2.3308622E1,-2.0654593E0,-4.2604866E0,-6.358128E0,9.077831E0,2.1022677E0,-2.057093E0,1.8266481E0,7.1943045E-1,4.7645974E0,-1.7419922E1,6.6093683E0,1.3011628E1,-1.9610436E0,-2.0807714E1,2.6613763E-2,1.005614E1,-1.2083157E1,-2.0199068E0,3.8092642E0,1.2119792E1,-2.532968E1,2.0375592E-1],"split_indices":[0,0,0,2,2,0,0,2,0,2,1,0,2,1,2,1,1,0,1,0,0,0,0,1,1,1,2,2,2,0,1,2,0,2,1,0,2,0,1,2,2,0,0,0,0,1,0,2,0,0,0,0,0,0,0,0,0,0,0,0,0,0,0,0,0,0,0,0,0,0,0,0,0,0,0,0,0,0,0,0,0],"split_type":[0,0,0,0,0,0,0,0,0,0,0,0,0,0,0,0,0,0,0,0,0,0,0,0,0,0,0,0,0,0,0,0,0,0,0,0,0,0,0,0,0,0,0,0,0,0,0,0,0,0,0,0,0,0,0,0,0,0,0,0,0,0,0,0,0,0,0,0,0,0,0,0,0,0,0,0,0,0,0,0,0],"sum_hessian":[1.1388E4,6.25E2,1.0763E4,6.2E1,5.63E2,2.697E3,8.066E3,6.1E1,1E0,5.48E2,1.5E1,2.502E3,1.95E2,8.1E1,7.985E3,1.9E1,4.2E1,3.3E1,5.15E2,1.1E1,4E0,2.444E3,5.8E1,1.85E2,1E1,7E0,7.4E1,2.954E3,5.031E3,1E0,1.8E1,4E1,2E0,2.5E1,8E0,4.79E2,3.6E1,8.58E2,1.586E3,4.6E1,1.39E2,1E0,9E0,3E0,4E0,6.9E1,5E0,1.965E3,9.89E2,1.38E2,4.893E3,1.7E1,1E0,6E0,3.4E1,2E0,2.3E1,1E0,7E0,2.81E2,1.98E2,1.8E1,1.8E1,3.25E2,5.33E2,8.97E2,6.89E2,3.7E1,9E0,8.8E1,5.1E1,1.9E1,5E1,1.917E3,4.8E1,9.3E1,8.96E2,9.1E1,4.7E1,5E0,4.888E3],"tree_param":{"num_deleted":"0","num_feature":"3","num_nodes":"81","size_leaf_vector":"1"}},{"base_weights":[-1.5109467E-2,-8.528045E0,1.3008079E-1,-5.509885E0,-4.629264E1,8.788106E0,-9.844205E-2,-9.887109E0,1.3319743E1,-9.147234E0,-1.8684E1,-2.3626513E1,1.3365726E1,-1.2064476E1,1.8211755E-1,-6.4292674E0,-2.3496775E1,-9.898733E0,2.0595005E1,7.3107767E0,-2.5694086E1,1.6162537E1,2.2441614E0,-1.527928E1,-5.168413E0,-2.938948E-1,1.0392449E1,2.1611101E1,-8.139658E0,-1.5874322E1,-3.8671745E1,-1.663994E1,2.8707592E1,-1.2592375E1,-8.9234915E0,1.3434171E1,2.879691E1,-1.373488E1,9.093364E0,-2.2650194E1,-9.4985895E0,2.1092174E0,-4.014773E1,5.5515967E-2,-1.878153E1,2.6134062E1,6.9880813E-1,3.5037153E0,7.8421135E0,-9.27192E0,-2.2315125E0,-2.695455E0,-1.287251E1,-1.4141552E0,-1.946859E1,-7.717936E0,3.0661625E-1,6.528865E0,1.1084511E1,-8.372582E0,1.8788057E1,3.6579611E0,5.4424095E0,7.1106424E0,1.0423816E1,-1.3831008E1,1.5507838E0,3.2580717E0,-8.177115E0,-1.5079306E0,-8.467566E0,-4.582337E0,1.5840937E0,-3.1018417E0,9.138879E0,-3.888833E0,-1.3079499E1,-3.3497248E0,1.3043147E-1,-7.7697334E0,3.0549128E0,1.2946159E1,3.1844783E0,5.6301494E0,-2.598977E0],"categories":[],"categories_nodes":[],"categories_segments":[],"categories_sizes":[],"default_left":[0,0,0,0,0,0,0,0,0,0,0,0,0,0,0,0,0,0,0,0,0,0,0,0,0,0,0,0,0,0,0,0,0,0,0,0,0,0,0,0,0,0,0,0,0,0,0,0,0,0,0,0,0,0,0,0,0,0,0,0,0,0,0,0,0,0,0,0,0,0,0,0,0,0,0,0,0,0,0,0,0,0,0,0,0],"id":15,"left_children":[1,3,5,7,9,11,13,15,17,-1,-1,19,21,23,25,27,29,-1,31,-1,33,35,37,39,41,43,45,47,49,51,53,55,57,59,-1,61,63,65,67,69,71,73,75,77,79,81,83,-1,-1,-1,-1,-1,-1,-1,-1,-1,-1,-1,-1,-1,-1,-1,-1,-1,-1,-1,-1,-1,-1,-1,-1,-1,-1,-1,-1,-1,-1,-1,-1,-1,-1,-1,-1,-1,-1],"loss_changes":[1.4077859E4,2.1515031E4,2.2158719E4,1.480272E4,1.6378555E3,4.3049758E4,3.6635805E4,6.6726426E3,1.2136105E4,0E0,0E0,4.1985938E3,7.8332695E3,5.4634062E3,5.1827836E4,5.7872236E3,2.7405557E3,0E0,9.539844E3,0E0,1.4830137E3,6.5763203E3,5.815968E3,7.028379E3,2.070457E4,6.5819734E4,7.246367E4,9.600342E0,1.5423252E3,3.5257305E3,7.7085605E3,9.8920935E2,6.266426E2,1.326858E4,0E0,7.60166E2,2.3727734E2,1.0028702E4,2.6724023E3,7.12884E3,8.360666E3,2.4316695E4,7.481035E2,4.256638E4,3.922753E4,4.734993E4,5.0063934E4,0E0,0E0,0E0,0E0,0E0,0E0,0E0,0E0,0E0,0E0,0E0,0E0,0E0,0E0,0E0,0E0,0E0,0E0,0E0,0E0,0E0,0E0,0E0,0E0,0E0,0E0,0E0,0E0,0E0,0E0,0E0,0E0,0E0,0E0,0E0,0E0,0E0,0E0],"parents":[2147483647,0,0,1,1,2,2,3,3,4,4,5,5,6,6,7,7,8,8,11,11,12,12,13,13,14,14,15,15,16,16,18,18,20,20,21,21,22,22,23,23,24,24,25,25,26,26,27,27,28,28,29,29,30,30,31,31,32,32,33,33,35,35,36,36,37,37,38,38,39,39,40,40,41,41,42,42,43,43,44,44,45,45,46,46],"right_children":[2,4,6,8,10,12,14,16,18,-1,-1,20,22,24,26,28,30,-1,32,-1,34,36,38,40,42,44,46,48,50,52,54,56,58,60,-1,62,64,66,68,70,72,74,76,78,80,82,84,-1,-1,-1,-1,-1,-1,-1,-1,-1,-1,-1,-1,-1,-1,-1,-1,-1,-1,-1,-1,-1,-1,-1,-1,-1,-1,-1,-1,-1,-1,-1,-1,-1,-1,-1,-1,-1,-1],"split_conditions":[-2.7000868E1,-2.7541775E1,-2.6468502E1,1.5324015E9,8.8301E4,8.837E4,-2.5435488E1,1.5254419E9,-2.968818E1,-9.147234E0,-1.8684E1,1.4967309E9,1.5229528E9,1.5148593E9,7.1825E4,-3.003215E1,9.203E4,-9.898733E0,8.9041E4,7.3107767E0,1.5085001E9,8.9204E4,-2.691627E1,8.5801E4,8.9204E4,3.7706E4,1.5112963E9,9.203E4,1.4900977E9,1.5305481E9,-2.968818E1,1.5337053E9,1.5329684E9,1.5083273E9,-8.9234915E0,1.5160735E9,1.5148593E9,8.9041E4,8.9204E4,1.4934121E9,1.507147E9,8.3402E4,1.5160735E9,-2.3680084E1,-6.825533E0,-2.4492031E1,8.023E4,3.5037153E0,7.8421135E0,-9.27192E0,-2.2315125E0,-2.695455E0,-1.287251E1,-1.4141552E0,-1.946859E1,-7.717936E0,3.0661625E-1,6.528865E0,1.1084511E1,-8.372582E0,1.8788057E1,3.6579611E0,5.4424095E0,7.1106424E0,1.0423816E1,-1.3831008E1,1.5507838E0,3.2580717E0,-8.177115E0,-1.5079306E0,-8.467566E0,-4.582337E0,1.5840937E0,-3.1018417E0,9.138879E0,-3.888833E0,-1.3079499E1,-3.3497248E0,1.3043147E-1,-7.7697334E0,3.0549128E0,1.2946159E1,3.1844783E0,5.6301494E0,-2.598977E0],"split_indices":[2,2,2,1,0,0,2,1,2,0,0,1,1,1,0,2,0,0,0,0,1,0,2,0,0,0,1,0,1,1,2,1,1,1,0,1,1,0,0,1,1,0,1,2,2,2,0,0,0,0,0,0,0,0,0,0,0,0,0,0,0,0,0,0,0,0,0,0,0,0,0,0,0,0,0,0,0,0,0,0,0,0,0,0,0],"split_type":[0,0,0,0,0,0,0,0,0,0,0,0,0,0,0,0,0,0,0,0,0,0,0,0,0,0,0,0,0,0,0,0,0,0,0,0,0,0,0,0,0,0,0,0,0,0,0,0,0,0,0,0,0,0,0,0,0,0,0,0,0,0,0,0,0,0,0,0,0,0,0,0,0,0,0,0,0,0,0,0,0,0,0,0,0],"sum_hessian":[1.1388E4,1.9E2,1.1198E4,1.77E2,1.3E1,2.87E2,1.0911E4,1.44E2,3.3E1,8E0,5E0,3.5E1,2.52E2,2.49E2,1.0662E4,1.16E2,2.8E1,4E0,2.9E1,1E0,3.4E1,2.01E2,5.1E1,1.69E2,8E1,1.0188E4,4.74E2,6E0,1.1E2,2E1,8E0,5E0,2.4E1,9E0,2.5E1,1.67E2,3.4E1,1.5E1,3.6E1,7.3E1,9.6E1,6.7E1,1.3E1,1E4,1.88E2,1.8E2,2.94E2,3E0,3E0,2E0,1.08E2,1.7E1,3E0,4E0,4E0,3E0,2E0,1.5E1,9E0,8E0,1E0,1.35E2,3.2E1,2.1E1,1.3E1,5E0,1E1,3.5E1,1E0,1.8E1,5.5E1,6.9E1,2.7E1,4.7E1,2E1,2E0,1.1E1,3.26E2,9.674E3,1.51E2,3.7E1,8.5E1,9.5E1,1E2,1.94E2],"tree_param":{"num_deleted":"0","num_feature":"3","num_nodes":"85","size_leaf_vector":"1"}},{"base_weights":[-1.5720159E-2,-4.586444E-1,1.7835435E0,6.562541E-2,-2.779421E1,5.7737656E0,-1.1262141E0,-2.922121E-1,1.4848056E1,1.55034685E1,-3.084873E1,5.600962E0,3.1999245E1,-5.046015E1,-4.1918825E-2,2.2984345E-1,-5.0574516E1,3.0873915E1,-2.0910468E0,3.0664806E0,5.7245207E0,-3.7606968E1,-7.9837327E0,-7.8631196E0,5.6963263E0,1.310637E1,4.5698833E0,-6.0706944E1,7.859197E0,-5.5713353E0,2.55721E0,-2.1717669E-1,1.1893558E1,-6.218875E0,-6.2356747E1,6.69372E1,2.3004942E1,-5.0811382E1,1.3160196E1,-6.5039215E1,-3.0716066E1,2.8836056E1,-1.7228075E1,1.534496E0,6.0282984E0,5.16926E0,-6.8233315E1,-1.5267782E1,3.5541053E0,4.7129374E0,-7.0850773E0,1.0497648E-1,-1.0189852E1,3.8098893E0,-2.325444E1,5.0719953E0,-2.3693035E1,-1.938073E1,-2.577281E0,2.9814606E0,2.1917513E1,2.4024274E0,1.106225E1,-6.0013194E0,-2.8506428E1,1.3054606E1,1.467444E0,-1.4982106E1,-2.435508E1,-1.1078376E1,-1.1134993E0,-1.0748393E1,1.690862E1,-9.925285E0,5.8135185E0,1.7621225E0,2.171327E0,-2.7929098E1,-1.1305058E1,-1.6088971E0,-9.228843E0,2.1925042E0,-2.17911E1,1.2016728E0,6.1838846E0,-1.3511264E0,-2.5706718E1],"categories":[],"categories_nodes":[],"categories_segments":[],"categories_sizes":[],"default_left":[1,1,0,1,0,0,0,1,0,0,0,0,0,0,0,1,0,0,0,0,0,0,0,0,0,0,0,0,0,0,0,1,0,0,0,0,0,0,0,0,0,0,0,0,0,0,0,0,0,0,0,0,0,0,0,0,0,0,0,0,0,0,0,0,0,0,0,0,0,0,0,0,0,0,0,0,0,0,0,0,0,0,0,0,0,0,0],"id":16,"left_children":[1,3,5,7,9,11,13,15,17,19,21,23,25,27,29,31,33,35,37,-1,-1,39,41,-1,43,-1,-1,45,-1,47,49,51,53,55,57,59,61,63,65,67,69,71,73,-1,75,-1,77,79,81,83,85,-1,-1,-1,-1,-1,-1,-1,-1,-1,-1,-1,-1,-1,-1,-1,-1,-1,-1,-1,-1,-1,-1,-1,-1,-1,-1,-1,-1,-1,-1,-1,-1,-1,-1,-1,-1],"loss_changes":[9.077139E3,1.3098909E5,2.6130305E4,4.744773E4,2.3225906E4,4.121508E3,6.9645195E4,2.299105E5,5.7614848E4,3.1753174E1,2.457861E4,3.013084E3,5.1035693E2,2.3584156E4,1.833812E4,4.520201E4,4.6646984E4,2.939225E4,7.794544E4,0E0,0E0,2.1442344E4,1.3431029E4,0E0,1.5096094E2,0E0,0E0,1.5840445E4,0E0,3.615588E4,1.8075762E4,1.5982252E5,2.404673E4,3.4986527E4,8.017625E3,5.903047E3,1.8632223E4,3.2148602E4,1.9867E4,1.7959453E3,1.6805422E4,1.625888E4,1.8634754E4,0E0,6.852344E1,0E0,1.3962117E4,3.0223074E4,6.0885254E4,7.902843E3,3.1875527E4,0E0,0E0,0E0,0E0,0E0,0E0,0E0,0E0,0E0,0E0,0E0,0E0,0E0,0E0,0E0,0E0,0E0,0E0,0E0,0E0,0E0,0E0,0E0,0E0,0E0,0E0,0E0,0E0,0E0,0E0,0E0,0E0,0E0,0E0,0E0,0E0],"parents":[2147483647,0,0,1,1,2,2,3,3,4,4,5,5,6,6,7,7,8,8,9,9,10,10,11,11,12,12,13,13,14,14,15,15,16,16,17,17,18,18,21,21,22,22,24,24,27,27,29,29,30,30,31,31,32,32,33,33,34,34,35,35,36,36,37,37,38,38,39,39,40,40,41,41,42,42,44,44,46,46,47,47,48,48,49,49,50,50],"right_children":[2,4,6,8,10,12,14,16,18,20,22,24,26,28,30,32,34,36,38,-1,-1,40,42,-1,44,-1,-1,46,-1,48,50,52,54,56,58,60,62,64,66,68,70,72,74,-1,76,-1,78,80,82,84,86,-1,-1,-1,-1,-1,-1,-1,-1,-1,-1,-1,-1,-1,-1,-1,-1,-1,-1,-1,-1,-1,-1,-1,-1,-1,-1,-1,-1,-1,-1,-1,-1,-1,-1,-1,-1],"split_conditions":[-2.136757E1,-2.2074064E1,-2.125334E1,-2.2358353E1,1.366E4,1.494E4,-2.1171217E1,-2.251225E1,1.5186629E9,1.4987569E9,-2.1592175E1,1.4407E4,1.5126819E9,1.494E4,1.5179622E9,-2.2549034E1,1.75E4,-2.228445E1,1.8015E4,3.0664806E0,5.7245207E0,1.484E4,1.5063123E9,-7.8631196E0,1.5138153E9,1.310637E1,4.5698833E0,1.405E4,7.859197E0,-2.0502342E1,1.5329684E9,-2.274139E1,2.602E4,1.5337905E9,1.5307028E9,1.5057627E9,-2.2159376E1,1.530217E9,-2.228445E1,1.5112963E9,1.5204753E9,1.4963233E9,1.5221814E9,1.534496E0,1.485E4,5.16926E0,1.5260577E9,1.409E4,1.5169165E9,7.1825E4,7.565E4,1.0497648E-1,-1.0189852E1,3.8098893E0,-2.325444E1,5.0719953E0,-2.3693035E1,-1.938073E1,-2.577281E0,2.9814606E0,2.1917513E1,2.4024274E0,1.106225E1,-6.0013194E0,-2.8506428E1,1.3054606E1,1.467444E0,-1.4982106E1,-2.435508E1,-1.1078376E1,-1.1134993E0,-1.0748393E1,1.690862E1,-9.925285E0,5.8135185E0,1.7621225E0,2.171327E0,-2.7929098E1,-1.1305058E1,-1.6088971E0,-9.228843E0,2.1925042E0,-2.17911E1,1.2016728E0,6.1838846E0,-1.3511264E0,-2.5706718E1],"split_indices":[2,2,2,2,0,0,2,2,1,1,2,0,1,0,1,2,0,2,0,0,0,0,1,0,1,0,0,0,0,2,1,2,0,1,1,1,2,1,2,1,1,1,1,0,0,0,1,0,1,0,0,0,0,0,0,0,0,0,0,0,0,0,0,0,0,0,0,0,0,0,0,0,0,0,0,0,0,0,0,0,0,0,0,0,0,0,0],"split_type":[0,0,0,0,0,0,0,0,0,0,0,0,0,0,0,0,0,0,0,0,0,0,0,0,0,0,0,0,0,0,0,0,0,0,0,0,0,0,0,0,0,0,0,0,0,0,0,0,0,0,0,0,0,0,0,0,0,0,0,0,0,0,0,0,0,0,0,0,0,0,0,0,0,0,0,0,0,0,0,0,0,0,0,0,0,0,0],"sum_hessian":[1.1388E4,9.139E3,2.249E3,8.968E3,1.71E2,9.48E2,1.301E3,8.757E3,2.11E2,1.1E1,1.6E2,9.43E2,5E0,2.7E1,1.274E3,8.668E3,8.9E1,1.08E2,1.03E2,6E0,5E0,1.23E2,3.7E1,2E0,9.41E2,2E0,3E0,2.4E1,3E0,4.07E2,8.67E2,8.349E3,3.19E2,1.9E1,7E1,1.8E1,9E1,2.4E1,7.9E1,2.3E1,1E2,7E0,3E1,3.48E2,5.93E2,2E0,2.2E1,1.97E2,2.1E2,7.09E2,1.58E2,8.212E3,1.37E2,3.17E2,2E0,1.5E1,4E0,6.7E1,3E0,2E0,1.6E1,4.4E1,4.6E1,1.5E1,9E0,1.6E1,6.3E1,1.4E1,9E0,8.1E1,1.9E1,2E0,5E0,2.1E1,9E0,5.31E2,6.2E1,1.1E1,1.1E1,1.21E2,7.6E1,2.01E2,9E0,6.8E2,2.9E1,1.54E2,4E0],"tree_param":{"num_deleted":"0","num_feature":"3","num_nodes":"87","size_leaf_vector":"1"}},{"base_weights":[-2.447924E-2,-7.254091E-1,1.1355735E0,8.753488E-1,-2.4040096E0,6.42929E0,-7.210004E-1,3.0513301E-1,2.2831537E1,-3.664488E-1,-6.688579E0,4.249484E0,1.8101221E1,-5.4246918E1,2.742638E-1,6.111934E-1,-2.1999E1,6.2465008E1,1.0229173E1,-1.3540657E0,1.9567139E1,-5.869128E0,-7.0830376E1,7.8626857E0,-2.3085243E1,2.0316334E1,-2.3481615E0,2.1194792E1,-6.335932E1,-9.242324E0,8.3264077E-1,2.2904007E0,-1.6311469E0,5.522648E1,-2.837462E1,-1.2748372E1,2.8750547E1,-3.7759163E0,1.6186829E1,-2.2786117E0,7.5472727E0,6.0041246E0,3.278074E1,-1.258022E1,-2.4413872E0,-1.6396946E1,-2.9280296E1,-5.398938E1,8.37796E0,-2.075811E1,-5.487445E0,1.654675E1,2.7472176E1,-3.4945156E1,1.6862432E1,2.18292E1,-1.3985689E1,-6.583355E1,9.423928E0,-3.1760803E1,-2.0073352E0,8.264725E0,-7.230384E-2,7.361788E0,6.159813E-1,1.0231672E-2,-8.898992E0,2.4368368E1,-3.4166646E0,-1.0787612E1,1.1846938E1,9.970755E-2,-5.343157E0,6.62658E0,2.8303605E-1,-3.066993E-1,-1.8802963E0,1.2949551E0,5.913407E0,3.4159772E0,-1.5230439E0,1.204998E1,6.1311774E0,-4.451056E0,6.8830913E-1,-3.8137345E0,-2.2178102E-1,-3.1878975E1,3.534549E0,5.245193E0,2.1293528E0,5.9293947E0,-1.5722325E1,1.3244692E1,6.106083E0,-1.7662926E1,4.976599E0,7.352844E0,-1.0088263E1,-1.5703787E1,2.0918308E1,-1.2952842E1,-2.0898212E1,-1.7070679E1,-4.2301774E0,8.580944E-1,-1.4035523E1,2.6705165E0,-1.8603554E1,-1.2100735E1,3.231629E-1],"categories":[],"categories_nodes":[],"categories_segments":[],"categories_sizes":[],"default_left":[1,0,0,0,0,0,0,0,0,0,1,0,0,0,0,0,0,0,0,0,0,0,0,0,0,0,0,0,0,0,0,0,0,0,0,0,0,0,0,0,0,0,0,0,0,0,0,0,0,0,0,0,0,0,0,0,0,0,0,0,0,0,0,0,0,0,0,0,0,0,0,0,0,0,0,0,0,0,0,0,0,0,0,0,0,0,0,0,0,0,0,0,0,0,0,0,0,0,0,0,0,0,0,0,0,0,0,0,0,0,0],"id":17,"left_children":[1,3,5,7,9,11,13,15,17,19,21,23,25,27,29,31,33,35,37,39,41,43,45,47,49,51,53,55,57,59,61,63,65,67,69,-1,-1,71,73,75,77,79,81,83,85,-1,-1,87,89,-1,-1,91,93,95,97,-1,99,101,-1,103,105,107,109,-1,-1,-1,-1,-1,-1,-1,-1,-1,-1,-1,-1,-1,-1,-1,-1,-1,-1,-1,-1,-1,-1,-1,-1,-1,-1,-1,-1,-1,-1,-1,-1,-1,-1,-1,-1,-1,-1,-1,-1,-1,-1,-1,-1,-1,-1,-1,-1],"loss_changes":[9.261398E3,1.908004E4,4.2167508E4,4.5502383E4,3.0255979E4,2.8266066E4,1.6926138E5,2.4206252E4,4.531278E4,4.6290348E4,5.829498E4,9.302144E4,7.9748047E3,4.1215297E4,1.6586887E4,1.317118E4,2.5200324E4,8.112782E4,5.985182E3,1.8451717E4,1.9696188E4,2.536557E4,7.272578E2,2.6936973E4,2.3047953E4,3.8073984E3,1.1860998E4,1.371726E4,1.42614375E4,2.812157E4,1.9827738E4,1.0501367E4,6.992858E4,7.8534697E3,2.4581023E4,0E0,0E0,1.2743958E3,4.4773076E3,1.0166647E4,8.207044E3,3.3978027E3,4.2844688E3,1.2554332E4,1.278783E4,0E0,0E0,2.5318783E4,9.492738E3,0E0,0E0,2.4556016E4,5.393297E3,9.609566E3,5.457385E3,0E0,1.97063E4,1.4146875E3,0E0,1.784579E4,2.8904852E4,1.4877115E4,1.2172255E5,0E0,0E0,0E0,0E0,0E0,0E0,0E0,0E0,0E0,0E0,0E0,0E0,0E0,0E0,0E0,0E0,0E0,0E0,0E0,0E0,0E0,0E0,0E0,0E0,0E0,0E0,0E0,0E0,0E0,0E0,0E0,0E0,0E0,0E0,0E0,0E0,0E0,0E0,0E0,0E0,0E0,0E0,0E0,0E0,0E0,0E0,0E0,0E0],"parents":[2147483647,0,0,1,1,2,2,3,3,4,4,5,5,6,6,7,7,8,8,9,9,10,10,11,11,12,12,13,13,14,14,15,15,16,16,17,17,18,18,19,19,20,20,21,21,22,22,23,23,24,24,25,25,26,26,27,27,28,28,29,29,30,30,31,31,32,32,33,33,34,34,37,37,38,38,39,39,40,40,41,41,42,42,43,43,44,44,47,47,48,48,51,51,52,52,53,53,54,54,56,56,57,57,59,59,60,60,61,61,62,62],"right_children":[2,4,6,8,10,12,14,16,18,20,22,24,26,28,30,32,34,36,38,40,42,44,46,48,50,52,54,56,58,60,62,64,66,68,70,-1,-1,72,74,76,78,80,82,84,86,-1,-1,88,90,-1,-1,92,94,96,98,-1,100,102,-1,104,106,108,110,-1,-1,-1,-1,-1,-1,-1,-1,-1,-1,-1,-1,-1,-1,-1,-1,-1,-1,-1,-1,-1,-1,-1,-1,-1,-1,-1,-1,-1,-1,-1,-1,-1,-1,-1,-1,-1,-1,-1,-1,-1,-1,-1,-1,-1,-1,-1,-1],"split_conditions":[-2.2900814E1,-2.3609787E1,-2.274139E1,-2.3625483E1,1.5198701E9,-2.2827328E1,-2.2599255E1,-2.3646847E1,5.727E3,2.279E4,-2.2911196E1,2.224E4,1.5324015E9,1.4987569E9,1.405E4,9.02E3,1.4996607E9,4.209E3,1.5114007E9,1.5162629E9,1.5123942E9,1.5247278E9,2.121E4,1.3101E4,2.444E4,2.5645E4,1.533238E9,2.0021E4,1.5329684E9,1.5057627E9,-2.251225E1,4.209E3,-2.3656677E1,5.125E3,1.5314337E9,-1.2748372E1,2.8750547E1,7.097E3,1.5294619E9,1.85E4,1.3101E4,-2.2900814E1,1.5166674E9,-2.2987223E1,-2.3569086E1,-1.6396946E1,-2.9280296E1,-2.2890823E1,-2.2890823E1,-2.075811E1,-5.487445E0,2.4451E4,1.5236122E9,2.6379E4,1.5350445E9,2.18292E1,1.4984835E9,1.366E4,9.423928E0,-2.2418543E1,1.5337905E9,2.602E4,-2.2358353E1,7.361788E0,6.159813E-1,1.0231672E-2,-8.898992E0,2.4368368E1,-3.4166646E0,-1.0787612E1,1.1846938E1,9.970755E-2,-5.343157E0,6.62658E0,2.8303605E-1,-3.066993E-1,-1.8802963E0,1.2949551E0,5.913407E0,3.4159772E0,-1.5230439E0,1.204998E1,6.1311774E0,-4.451056E0,6.8830913E-1,-3.8137345E0,-2.2178102E-1,-3.1878975E1,3.534549E0,5.245193E0,2.1293528E0,5.9293947E0,-1.5722325E1,1.3244692E1,6.106083E0,-1.7662926E1,4.976599E0,7.352844E0,-1.0088263E1,-1.5703787E1,2.0918308E1,-1.2952842E1,-2.0898212E1,-1.7070679E1,-4.2301774E0,8.580944E-1,-1.4035523E1,2.6705165E0,-1.8603554E1,-1.2100735E1,3.231629E-1],"split_indices":[2,2,2,2,1,2,2,2,0,0,2,0,1,1,0,0,1,0,1,1,1,1,0,0,0,0,1,0,1,1,2,0,2,0,1,0,0,0,1,0,0,2,1,2,2,0,0,2,2,0,0,0,1,0,1,0,1,0,0,2,1,0,2,0,0,0,0,0,0,0,0,0,0,0,0,0,0,0,0,0,0,0,0,0,0,0,0,0,0,0,0,0,0,0,0,0,0,0,0,0,0,0,0,0,0,0,0,0,0,0,0],"split_type":[0,0,0,0,0,0,0,0,0,0,0,0,0,0,0,0,0,0,0,0,0,0,0,0,0,0,0,0,0,0,0,0,0,0,0,0,0,0,0,0,0,0,0,0,0,0,0,0,0,0,0,0,0,0,0,0,0,0,0,0,0,0,0,0,0,0,0,0,0,0,0,0,0,0,0,0,0,0,0,0,0,0,0,0,0,0,0,0,0,0,0,0,0,0,0,0,0,0,0,0,0,0,0,0,0,0,0,0,0,0,0],"sum_hessian":[1.1388E4,7.099E3,4.289E3,3.634E3,3.465E3,1.113E3,3.176E3,3.543E3,9.1E1,2.349E3,1.116E3,9.39E2,1.74E2,5.7E1,3.119E3,3.496E3,4.7E1,2.1E1,7E1,2.239E3,1.1E2,1.103E3,1.3E1,8.3E2,1.09E2,1.57E2,1.7E1,6E0,5.1E1,1.72E2,2.947E3,1.999E3,1.497E3,3E0,4.4E1,5E0,1.6E1,2.1E1,4.9E1,2.029E3,2.1E2,5.5E1,5.5E1,3.72E2,7.31E2,1E1,3E0,6E0,8.24E2,9E0,1E2,1.05E2,5.2E1,6E0,1.1E1,2E0,4E0,5E1,1E0,4.1E1,1.31E2,3.19E2,2.628E3,2E1,1.979E3,1.414E3,8.3E1,2E0,1E0,4E1,4E0,1.7E1,4E0,3.5E1,1.4E1,1.544E3,4.85E2,1.67E2,4.3E1,3.7E1,1.8E1,3.3E1,2.2E1,3.23E2,4.9E1,1.03E2,6.28E2,3E0,3E0,1E2,7.24E2,1.01E2,4E0,1.4E1,3.8E1,4E0,2E0,1E1,1E0,3E0,1E0,9E0,4.1E1,1.6E1,2.5E1,1.19E2,1.2E1,3.17E2,2E0,7.2E1,2.556E3],"tree_param":{"num_deleted":"0","num_feature":"3","num_nodes":"111","size_leaf_vector":"1"}},{"base_weights":[-2.6115302E-2,-6.2120104E0,9.177159E-2,-4.200807E0,-3.449977E1,2.9585676E-2,1.5474526E1,-6.9264803E0,8.846694E0,-6.7386937E0,-1.40418005E1,-1.947948E1,1.01688996E-1,2.0664818E1,-5.2084094E-1,-4.587932E0,-1.7815899E1,-7.550687E0,1.4047711E1,4.033882E0,-2.2857277E1,9.113522E0,-6.713703E-2,5.045236E0,7.487942E0,-2.9227913E1,1.2295729E1,1.6649845E1,-5.679421E0,-1.1963079E1,-2.9492931E1,-1.455151E1,2.0107235E1,-1.6938879E1,1.6334654E1,-1.54548855E1,-9.066429E0,8.798111E0,5.4167104E0,-8.655502E0,1.3464461E-1,-1.4120712E0,-1.6901316E1,7.7883387E0,-1.1276302E1,2.6894567E0,6.0517125E0,-7.4405775E0,-1.5583335E0,-1.9643859E0,-1.0002115E1,-1.102408E0,-1.4823775E1,-8.565479E0,-1.24070555E-1,7.7930875E0,4.44453E0,6.1968775E0,-9.450519E0,-1.0080554E1,-2.645409E0,2.810629E0,-3.3357913E0,-4.047686E0,-1.6344854E0,2.7585654E0,-3.117585E-2,-6.9678283E0,6.332396E0,-1.17081785E1,3.2949312E0],"categories":[],"categories_nodes":[],"categories_segments":[],"categories_sizes":[],"default_left":[1,1,0,0,0,0,0,0,0,0,0,0,0,0,0,0,0,0,0,0,0,0,0,0,0,0,0,0,0,0,0,0,0,0,0,0,0,0,0,0,0,0,0,0,0,0,0,0,0,0,0,0,0,0,0,0,0,0,0,0,0,0,0,0,0,0,0,0,0,0,0],"id":18,"left_children":[1,3,5,7,9,11,13,15,17,-1,-1,19,21,23,25,27,29,-1,31,33,35,37,39,-1,-1,41,43,45,47,49,51,53,55,57,-1,59,-1,61,-1,63,65,67,-1,-1,69,-1,-1,-1,-1,-1,-1,-1,-1,-1,-1,-1,-1,-1,-1,-1,-1,-1,-1,-1,-1,-1,-1,-1,-1,-1,-1],"loss_changes":[8.305838E3,1.1973162E4,1.0691356E4,7.1739214E3,1.02252734E3,1.566242E4,3.7466904E3,4.1455234E3,6.5456255E3,0E0,0E0,3.3485596E3,1.6877855E4,1.4206836E2,4.7744927E3,3.293511E3,1.6291367E3,0E0,5.6648174E3,7.266348E3,1.495375E3,4.1651562E2,1.8873256E4,0E0,0E0,2.9367754E3,3.1918364E3,8.651855E0,1.095331E3,2.2126658E3,4.4470366E3,1.1757863E3,4.2279688E2,3.3881692E3,0E0,2.1124727E3,0E0,2.3659893E3,0E0,3.8046465E3,2.3001773E4,1.9640153E3,0E0,0E0,2.8995198E3,0E0,0E0,0E0,0E0,0E0,0E0,0E0,0E0,0E0,0E0,0E0,0E0,0E0,0E0,0E0,0E0,0E0,0E0,0E0,0E0,0E0,0E0,0E0,0E0,0E0,0E0],"parents":[2147483647,0,0,1,1,2,2,3,3,4,4,5,5,6,6,7,7,8,8,11,11,12,12,13,13,14,14,15,15,16,16,18,18,19,19,20,20,21,21,22,22,25,25,26,26,27,27,28,28,29,29,30,30,31,31,32,32,33,33,35,35,37,37,39,39,40,40,41,41,44,44],"right_children":[2,4,6,8,10,12,14,16,18,-1,-1,20,22,24,26,28,30,-1,32,34,36,38,40,-1,-1,42,44,46,48,50,52,54,56,58,-1,60,-1,62,-1,64,66,68,-1,-1,70,-1,-1,-1,-1,-1,-1,-1,-1,-1,-1,-1,-1,-1,-1,-1,-1,-1,-1,-1,-1,-1,-1,-1,-1,-1,-1],"split_conditions":[-2.7000868E1,-2.7541775E1,8.956E4,1.5324015E9,8.8301E4,-2.6911411E1,1.5221814E9,1.5254419E9,-2.968818E1,-6.7386937E0,-1.40418005E1,1.5046723E9,-2.6468502E1,1.5148593E9,1.5265882E9,-3.003215E1,9.203E4,-7.550687E0,8.8301E4,1.5028539E9,1.5160735E9,1.5337053E9,-2.5435488E1,5.045236E0,7.487942E0,1.5246464E9,1.5312475E9,9.203E4,1.4900977E9,1.5305481E9,-2.968818E1,1.5337053E9,1.5326895E9,1.4967309E9,1.6334654E1,1.5083273E9,-9.066429E0,1.5311323E9,5.4167104E0,1.507147E9,-2.4011288E1,1.52333E9,-1.6901316E1,7.7883387E0,1.5347355E9,2.6894567E0,6.0517125E0,-7.4405775E0,-1.5583335E0,-1.9643859E0,-1.0002115E1,-1.102408E0,-1.4823775E1,-8.565479E0,-1.24070555E-1,7.7930875E0,4.44453E0,6.1968775E0,-9.450519E0,-1.0080554E1,-2.645409E0,2.810629E0,-3.3357913E0,-4.047686E0,-1.6344854E0,2.7585654E0,-3.117585E-2,-6.9678283E0,6.332396E0,-1.17081785E1,3.2949312E0],"split_indices":[2,2,0,1,0,2,1,1,2,0,0,1,2,1,1,2,0,0,0,1,1,1,2,0,0,1,1,0,1,1,2,1,1,1,0,1,0,1,0,1,2,1,0,0,1,0,0,0,0,0,0,0,0,0,0,0,0,0,0,0,0,0,0,0,0,0,0,0,0,0,0],"split_type":[0,0,0,0,0,0,0,0,0,0,0,0,0,0,0,0,0,0,0,0,0,0,0,0,0,0,0,0,0,0,0,0,0,0,0,0,0,0,0,0,0,0,0,0,0,0,0,0,0,0,0,0,0,0,0,0,0,0,0,0,0,0,0,0,0,0,0,0,0,0,0],"sum_hessian":[1.1388E4,2.12E2,1.1176E4,1.99E2,1.3E1,1.1132E4,4.4E1,1.65E2,3.4E1,8E0,5E0,4E1,1.1092E4,3.3E1,1.1E1,1.37E2,2.8E1,4E0,3E1,5E0,3.5E1,2.03E2,1.0889E4,2E1,1.3E1,3E0,8E0,6E0,1.31E2,2E1,8E0,5E0,2.5E1,4E0,1E0,1.9E1,1.6E1,1.98E2,5E0,2.49E2,1.064E4,2E0,1E0,5E0,3E0,3E0,3E0,2E0,1.29E2,1.7E1,3E0,4E0,4E0,2E0,3E0,1E1,1.5E1,1E0,3E0,4E0,1.5E1,1.93E2,5E0,9.8E1,1.51E2,2.72E2,1.0368E4,1E0,1E0,1E0,2E0],"tree_param":{"num_deleted":"0","num_feature":"3","num_nodes":"71","size_leaf_vector":"1"}},{"base_weights":[-2.4018733E-2,-5.459889E-2,6.514846E0,1.00209675E1,-1.1070798E-1,1.6612602E1,3.910085E0,-4.9771724E0,1.02586105E-1,8.1140585E0,1.7244753E1,2.793137E1,-5.8548326E0,-5.6881533E0,1.5774593E1,1.0480169E0,-6.610603E-1,1.6376646E1,-4.9957457E0,3.0786364E0,1.1400155E1,-1.1978341E1,6.063812E-1,-5.4236665E0,-1.3251122E1,3.361837E0,7.075202E0,-8.207039E0,1.7068138E0,-2.264231E0,8.144996E-1,-5.411825E0,5.7412386E0,1.9540745E0,-1.1693125E1,-1.6991233E0,1.5643763E1,1.22060375E1,-3.0201685E0,1.7152956E-1,1.7096269E0,-6.6095546E-2,-3.1468565E0,2.4787693E0,6.751868E-2],"categories":[],"categories_nodes":[],"categories_segments":[],"categories_sizes":[],"default_left":[1,0,0,0,0,0,0,0,0,0,0,0,0,0,0,0,0,0,0,0,0,0,0,0,0,0,0,0,0,0,0,0,0,0,0,0,0,0,0,0,0,0,0,0,0],"id":19,"left_children":[1,3,-1,5,7,9,11,13,15,17,-1,19,21,23,25,27,29,31,-1,-1,-1,-1,33,35,-1,-1,-1,37,39,41,43,-1,-1,-1,-1,-1,-1,-1,-1,-1,-1,-1,-1,-1,-1],"loss_changes":[7.572797E3,6.431183E3,0E0,2.472728E3,1.1742232E4,9.953624E3,8.138774E3,7.0979277E3,7.8254556E3,5.5932407E3,0E0,1.3891763E3,5.52803E3,4.442336E3,3.0654785E2,2.9542762E4,1.4185828E4,2.2455566E3,0E0,0E0,0E0,0E0,5.398084E3,6.6254287E3,0E0,0E0,0E0,2.969608E4,2.0486145E4,4.8314727E4,1.3708634E4,0E0,0E0,0E0,0E0,0E0,0E0,0E0,0E0,0E0,0E0,0E0,0E0,0E0,0E0],"parents":[2147483647,0,0,1,1,3,3,4,4,5,5,6,6,7,7,8,8,9,9,11,11,12,12,13,13,14,14,15,15,16,16,17,17,22,22,23,23,27,27,28,28,29,29,30,30],"right_children":[2,4,-1,6,8,10,12,14,16,18,-1,20,22,24,26,28,30,32,-1,-1,-1,-1,34,36,-1,-1,-1,38,40,42,44,-1,-1,-1,-1,-1,-1,-1,-1,-1,-1,-1,-1,-1,-1],"split_conditions":[-6.825533E0,1.529E3,6.514846E0,-2.3539495E1,3.32E3,-2.354479E1,1.5119963E9,-2.3460165E1,1.3232E4,-2.3549276E1,1.7244753E1,1.5075677E9,1.5125791E9,1.5350445E9,1.5125791E9,-2.3680084E1,2.184E4,1.5076901E9,-4.9957457E0,3.0786364E0,1.1400155E1,-1.1978341E1,1.5252177E9,1.5349509E9,-1.3251122E1,3.361837E0,7.075202E0,1.5015543E9,9.72E3,1.494E4,2.224E4,-5.411825E0,5.7412386E0,1.9540745E0,-1.1693125E1,-1.6991233E0,1.5643763E1,1.22060375E1,-3.0201685E0,1.7152956E-1,1.7096269E0,-6.6095546E-2,-3.1468565E0,2.4787693E0,6.751868E-2],"split_indices":[2,0,0,2,0,2,1,2,0,2,0,1,1,1,1,2,0,1,0,0,0,0,1,1,0,0,0,1,0,0,0,0,0,0,0,0,0,0,0,0,0,0,0,0,0],"split_type":[0,0,0,0,0,0,0,0,0,0,0,0,0,0,0,0,0,0,0,0,0,0,0,0,0,0,0,0,0,0,0,0,0,0,0,0,0,0,0,0,0,0,0,0,0],"sum_hessian":[1.1388E4,1.1373E4,1.5E1,6.2E1,1.1311E4,2.9E1,3.3E1,4.74E2,1.0837E4,2.5E1,4E0,9E0,2.4E1,4.59E2,1.5E1,4.842E3,5.995E3,1.9E1,6E0,4E0,5E0,3E0,2.1E1,4.57E2,2E0,1.1E1,4E0,3.21E2,4.521E3,2.873E3,3.122E3,1E0,1.8E1,1.9E1,2E0,4.56E2,1E0,1.1E1,3.1E2,3.521E3,1E3,2.302E3,5.71E2,2.28E2,2.894E3],"tree_param":{"num_deleted":"0","num_feature":"3","num_nodes":"45","size_leaf_vector":"1"}},{"base_weights":[-1.3880055E-2,-4.6641245E0,7.474086E-2,-3.1685126E0,-2.5696857E1,-1.14520244E-1,3.4469037E0,-5.0852294E0,6.012731E0,-4.959714E0,-1.0548229E1,4.8620366E-2,-6.858295E0,2.2456882E1,1.3479567E0,-3.1997135E0,-1.3193131E1,-5.754727E0,9.882506E0,1.4115206E1,-1.04087666E-1,-1.1777718E1,1.3561737E1,3.0639078E1,-1.647771E1,3.2683241E0,-6.855061E0,1.28457575E1,-4.0390873E0,-1.1305817E1,-1.0471888E1,-9.8712E0,1.5018244E1,-1.4519747E1,2.2608154E1,-8.621196E0,1.3305607E-1,4.6879535E0,-2.478774E1,3.74225E1,-7.2268394E1,2.037474E1,6.486636E1,1.776142E1,1.2972063E0,2.027835E0,-2.6349766E1,2.0691376E0,4.6748853E0,-1.3497683E0,5.0819764E0,-4.1882777E0,5.173141E0,-5.071033E0,-1.1134701E-1,2.7633452E0,6.8423305E0,-7.3283086E0,-8.1982356E-1,2.7292435E0,1.2336082E1,2.2863754E1,-3.1382499E0,